%YAML:1.0
nbModel_flavia_leaves_b: !!opencv-ml-bayesian
   var_count: 100
   var_all: 100
   cls_labels: !!opencv-matrix
      rows: 1
      cols: 3
      dt: i
      data: [ 1, 2, 4 ]
   count:
      - !!opencv-matrix
         rows: 1
         cols: 100
         dt: i
         data: [ 53, 53, 53, 53, 53, 53, 53, 53, 53, 53, 53, 53, 53, 53,
             53, 53, 53, 53, 53, 53, 53, 53, 53, 53, 53, 53, 53, 53, 53,
             53, 53, 53, 53, 53, 53, 53, 53, 53, 53, 53, 53, 53, 53, 53,
             53, 53, 53, 53, 53, 53, 53, 53, 53, 53, 53, 53, 53, 53, 53,
             53, 53, 53, 53, 53, 53, 53, 53, 53, 53, 53, 53, 53, 53, 53,
             53, 53, 53, 53, 53, 53, 53, 53, 53, 53, 53, 53, 53, 53, 53,
             53, 53, 53, 53, 53, 53, 53, 53, 53, 53, 53 ]
      - !!opencv-matrix
         rows: 1
         cols: 100
         dt: i
         data: [ 57, 57, 57, 57, 57, 57, 57, 57, 57, 57, 57, 57, 57, 57,
             57, 57, 57, 57, 57, 57, 57, 57, 57, 57, 57, 57, 57, 57, 57,
             57, 57, 57, 57, 57, 57, 57, 57, 57, 57, 57, 57, 57, 57, 57,
             57, 57, 57, 57, 57, 57, 57, 57, 57, 57, 57, 57, 57, 57, 57,
             57, 57, 57, 57, 57, 57, 57, 57, 57, 57, 57, 57, 57, 57, 57,
             57, 57, 57, 57, 57, 57, 57, 57, 57, 57, 57, 57, 57, 57, 57,
             57, 57, 57, 57, 57, 57, 57, 57, 57, 57, 57 ]
      - !!opencv-matrix
         rows: 1
         cols: 100
         dt: i
         data: [ 65, 65, 65, 65, 65, 65, 65, 65, 65, 65, 65, 65, 65, 65,
             65, 65, 65, 65, 65, 65, 65, 65, 65, 65, 65, 65, 65, 65, 65,
             65, 65, 65, 65, 65, 65, 65, 65, 65, 65, 65, 65, 65, 65, 65,
             65, 65, 65, 65, 65, 65, 65, 65, 65, 65, 65, 65, 65, 65, 65,
             65, 65, 65, 65, 65, 65, 65, 65, 65, 65, 65, 65, 65, 65, 65,
             65, 65, 65, 65, 65, 65, 65, 65, 65, 65, 65, 65, 65, 65, 65,
             65, 65, 65, 65, 65, 65, 65, 65, 65, 65, 65 ]
   sum:
      - !!opencv-matrix
         rows: 1
         cols: 100
         dt: d
         data: [ 8.1924964906647801e-01, 1.3903754204511642e-01,
             3.3983331173658371e-01, 3.6378879565745592e-02,
             1.1363636702299118e-02, 1.4084506779909134e-02,
             1.3869732571765780e-01, 0., 1.1111111380159855e-02,
             2.2820442705415189e+00, 1.9692865479737520e-01,
             3.5295261070132256e-02, 2.6515152305364609e-02,
             1.1363636702299118e-02, 2.4691358208656311e-02,
             5.1132699474692345e-02, 7.1536500938236713e-02,
             1.0454283012077212e+00, 4.0271133184432983e-02,
             2.7920970972627401e-01, 0., 4.8588171075098217e+00,
             2.6693292101845145e-01, 2.5195618160068989e-02,
             8.3912433264777064e-01, 4.4051554892212152e-01,
             1.6666667535901070e-02, 1.4084506779909134e-02,
             2.5452017225325108e-01, 0., 4.5854683034121990e-02,
             1.2048192322254181e-02, 2.6723748389631510e+00, 0.,
             8.5346121490001678e+00, 0., 4.4257479254156351e-02,
             5.6781920185312629e-01, 1.4439711114391685e-01,
             6.7133562173694372e-01, 3.2481903955340385e-01,
             4.7500404063612223e-02, 2.9411764815449715e-02,
             1.1363636702299118e-02, 6.4829701557755470e-02,
             7.0581452827900648e-01, 4.5603781007230282e-02,
             8.0575808472931385e+00, 0., 6.9242157042026520e-02,
             9.5809046644717455e-02, 1.1363636702299118e-02, 0.,
             8.6527689825743437e-02, 5.0448143854737282e-02,
             4.5233082026243210e-02, 3.4981685224920511e-02,
             2.3159303702414036e-02, 9.6153849735856056e-03,
             2.7777778916060925e-02, 3.9083139970898628e-02,
             1.2048192322254181e-02, 1.0115613560192287e+00,
             6.5573339816182852e-02, 9.4021530821919441e-02,
             8.4498696681112051e-01, 9.9999997764825821e-03,
             1.4057427663356066e+00, 9.3775520566850901e-02, 0., 0.,
             7.2463769465684891e-03, 1.0877536004409194e-01,
             1.2701486665755510e+00, 1.1363636702299118e-02,
             1.0639644460752606e-01, 0., 1.2609616108238697e-01,
             2.0465535353869200e+00, 7.4858741834759712e-02, 0., 0.,
             9.6093295142054558e-02, 3.9516353141516447e-01,
             1.1088528297841549e-01, 1.5151515603065491e-02,
             4.8822821583598852e-02, 0., 1.7857143655419350e-02,
             7.2463769465684891e-03, 3.1937735155224800e-02,
             6.5750313922762871e-02, 1.1363636702299118e-02,
             8.0003025941550732e-02, 2.9411764815449715e-02,
             2.8678448311984539e-01, 3.5460021346807480e-02,
             9.8934744484722614e-02, 8.2641019485890865e-02,
             9.5344516169279814e+00 ]
      - !!opencv-matrix
         rows: 1
         cols: 100
         dt: d
         data: [ 3.8932098762597889e-01, 8.3083983615506440e-01,
             3.4852856248617172e+00, 3.8795659551396966e-02,
             7.3749839398078620e-01, 2.2152467514388263e-02,
             5.7149108150042593e-02, 8.4521440789103508e-02,
             5.2213062299415469e-03, 1.3069869680330157e+00,
             3.7022626004181802e+00, 8.4876868058927357e-02,
             2.2343237651512027e-02, 1.1120335315354168e-02,
             2.0806351676583290e-02, 5.9565994655713439e-02,
             9.6583501785062253e-02, 9.5215011970140040e-02,
             2.7491535176523030e-01, 1.0701855272054672e-01,
             3.4783849958330393e-02, 4.7103903139941394e-02,
             5.1539871259592474e-01, 1.1890318244695663e-02,
             3.6531262216158211e-01, 3.2185084884986281e-01,
             3.5978467692621052e-01, 9.8490330856293440e-03,
             1.2765715199057013e+00, 2.7555884909816086e-02,
             2.9523269156925380e-02, 4.8372856806963682e-02,
             2.1513840779662132e+00, 5.2758301794528961e-01,
             2.1434972882270813e+00, 4.8084873473271728e-02,
             6.0879711643792689e-02, 7.1664498210884631e-01,
             4.0957480138167739e+00, 6.4803250425029546e-01,
             6.5160530875436962e-01, 5.8042553835548460e-02,
             1.7433325294405222e-02, 3.8479348411783576e-02,
             2.1853444154839963e-01, 1.5625531075056642e-01,
             2.2325889207422733e-02, 3.1193003486841917e+00,
             5.4083680734038353e-03, 2.5484686146955937e-01,
             3.3378415624611080e-01, 5.1672822446562350e-02,
             5.1303588203154504e-02, 1.2641842116136104e-01,
             3.0112926438450813e+00, 2.3963120873086154e+00,
             2.8937044204212725e-02, 3.5540739307180047e-02, 0.,
             1.6795630683191121e-02, 1.4084354974329472e-02,
             5.9524000040255487e-02, 5.4259991971775889e-01,
             1.5071056294254959e-01, 2.0275371067691594e-01,
             1.0926190018653870e-01, 8.2104281755164266e-03,
             1.3135326425544918e+00, 1.7334175156429410e-01,
             1.4114324515685439e-01, 2.5453430367633700e-02,
             2.2399958921596408e-02, 3.7288991753011942e+00,
             1.1834069481119514e-01, 4.5297714066691697e-02,
             2.0595914334990084e-02, 2.1911574644036591e-02,
             1.3908611465012655e+00, 1.1507553211413324e-01,
             1.1441460659261793e-01, 6.3174343947321177e-01,
             2.1849055076017976e-02, 2.9875883501954377e+00,
             4.6029942692257464e-02, 1.0419359139632434e-01,
             5.2306768344715238e-01, 2.0479363149497658e+00,
             3.5131311393342912e-02, 3.9135564584285021e-02,
             2.7691203285939991e-02, 2.6494274032302201e-02,
             1.4168347558006644e-01, 3.1022398266941309e-02,
             1.9207325798925012e-01, 2.1260450477711856e-02,
             3.4186852667480707e+00, 5.8346432645339519e-01,
             2.7510692877694964e-01, 2.8348732879385352e-01,
             1.7773231887258589e+00 ]
      - !!opencv-matrix
         rows: 1
         cols: 100
         dt: d
         data: [ 1.2334511969238520e+00, 3.0688170727808028e-01,
             2.4827160732820630e-01, 6.2973339750897139e-01,
             1.3497725693741813e-01, 3.1213214236777276e-01,
             7.1122012124396861e-01, 5.3812744515016675e-01,
             3.9146955497562885e-01, 1.0354194628307596e+00,
             3.7544954777695239e-01, 2.0384093199390918e-01,
             5.8207231224514544e-01, 6.0282124078366905e-01,
             7.1977453678846359e-01, 3.1979280186351389e-01,
             7.3439681460149586e-01, 2.6642857247497886e-01,
             2.4915651755873114e-01, 7.8022721724119037e-01,
             5.6776658375747502e-01, 1.2896734056994319e-02,
             3.3212507725693285e-01, 7.6235468359664083e-01,
             4.9872329004574567e-01, 4.1949949190020561e+00,
             5.8332623168826103e-01, 4.6137556980829686e-01,
             4.0470773237757385e-02, 4.5426814409438521e-01,
             5.3713421302381903e-01, 5.7215922011528164e-01,
             1.9879238849971443e+00, 6.7489904118701816e-02,
             2.3227409312967211e+00, 4.6846303367055953e-01,
             3.2366253621876240e-01, 2.3488639388233423e-02,
             1.9466500682756305e-01, 2.4678593385033309e-02,
             4.6556369983591139e-02, 7.5221940455958247e-01,
             4.8353398859035224e-01, 6.0233272891491652e-01,
             4.7824912308715284e-01, 1.2109712290111929e-01,
             6.5499282907694578e-01, 2.2338854642584920e+00,
             4.4657384022139013e-01, 9.7264252603054047e-02,
             2.4890434782719240e-01, 2.8957038623047993e-01,
             5.3294015489518642e-01, 1.8004303129855543e+00,
             1.3249423680827022e-01, 4.7379743715282530e-02,
             4.2316423670854419e-01, 6.8571161699946970e-01,
             1.6250640584621578e-01, 3.7622027134057134e-01,
             2.5066949636675417e-01, 6.2603718205355108e-01,
             1.9047778416424990e+00, 6.1385984637308866e-01,
             4.8962038266472518e-01, 2.2927879374474287e+00,
             5.2304550562985241e-01, 8.8047140743583441e-01,
             5.7538326352369040e-01, 7.9216159367933869e-01,
             5.5808097519911826e-01, 6.0240538138896227e-01,
             7.3336663888767362e-02, 1.1185289063723758e-01,
             6.3335220143198967e-01, 5.3828908223658800e-01,
             6.6849819209892303e-01, 1.0078360303305089e-01,
             4.4025636401493102e+00, 4.2294720414793119e-01,
             7.2987404710147530e-02, 4.5307204092387110e-01,
             1.2676053389441222e-01, 3.5453294659964740e-01,
             5.6377671030350029e-01, 8.9627807377837598e-02,
             7.9939334944356233e-02, 6.9362593162804842e-01,
             5.5994233256205916e-01, 6.1616801447235048e-01,
             6.8660501041449606e-01, 5.2792310155928135e-01,
             6.2698190461378545e-01, 8.7038074759766459e-01,
             5.2545219706371427e-01, 2.2035652009071782e-01,
             1.9351917691528797e-01, 9.2357815220020711e-01,
             5.6487001036293805e-01, 3.7665967210778035e+00 ]
   productsum:
      - !!opencv-matrix
         rows: 100
         cols: 100
         dt: d
         data: [ 3.4878955884384791e-02, 4.7946998991789521e-04,
             7.6249656020548756e-03, 1.1052772525732559e-03,
             1.2913223910183957e-04, 0., 6.7730277033346874e-04, 0., 0.,
             3.4613258335593589e-02, 4.5249255080481729e-03,
             1.2913223910183957e-04, 5.8826908924171362e-04,
             1.2913223910183957e-04, 9.1449475528226909e-04,
             7.4027893193394367e-04, 1.1728871923897891e-03,
             1.1111810062522594e-02, 6.1557403194900662e-04,
             3.5029013332437478e-03, 0., 8.1327587253117450e-02,
             1.0482082551310017e-03, 5.9511999369991908e-04,
             1.4805462992841096e-02, 6.3666268658023033e-03, 0.,
             5.9511999369991908e-04, 3.6254999755292450e-03, 0.,
             1.0688000203280534e-03, 1.4515893823402459e-04,
             3.9578781462752261e-02, 0., 1.2593780520811551e-01, 0.,
             8.2182776633549660e-05, 1.3910665564256099e-02,
             2.8360980839871679e-03, 1.4987567582618658e-02,
             3.5870066417177660e-04, 8.2182776633549660e-05,
             8.6505190955932579e-04, 1.2913223910183957e-04,
             1.0478134915134392e-03, 1.3639938249597420e-02,
             1.0116131044961736e-03, 1.5260177719615689e-01, 0.,
             7.2425223280175866e-04, 1.0692762846110965e-03,
             1.2913223910183957e-04, 0., 1.2288952486635986e-03,
             1.2913223910183957e-04, 6.0966317018817939e-04,
             1.7148358561043593e-03, 1.4515893823402459e-04,
             9.2455628190255858e-05, 0., 2.2956842506993702e-04,
             1.4515893823402459e-04, 1.7516540235152925e-02,
             8.2182776633549660e-05, 1.3750595789160250e-03,
             5.5082916020627714e-03, 0., 1.5281169894561684e-02,
             1.4028039228389283e-03, 0., 0., 0., 1.8462188057108112e-03,
             1.0039921332075787e-02, 1.2913223910183957e-04,
             1.8538409488168960e-03, 0., 3.4081310527812776e-03,
             2.6124483740249761e-02, 1.9278560425235736e-03, 0., 0.,
             3.2285224595724540e-03, 6.2942036745739340e-03,
             1.7251087076610655e-03, 4.5913685013987404e-04,
             8.4291574681658087e-04, 0., 0., 0., 1.2193263403763588e-03,
             5.6689344515470710e-04, 1.2913223910183957e-04,
             1.6326530794708097e-03, 8.6505190955932579e-04,
             3.6890950239428892e-03, 4.1945011556988876e-04,
             1.3732842273340299e-03, 2.1131501573538923e-04,
             1.2429574410878050e-01, 4.7946998991789521e-04,
             4.1486716381208951e-03, 4.0057685078169350e-05, 0., 0.,
             5.9511999369991908e-04, 2.2709175893170807e-04, 0., 0.,
             3.2217025533312570e-03, 1.5614728276776434e-03, 0., 0., 0.,
             1.5241579254704485e-04, 0., 1.5241579254704485e-04,
             6.5322504998246364e-03, 0., 1.8600037061493324e-04, 0.,
             1.5477985263467343e-02, 2.5664803454146096e-03, 0.,
             1.0934587596578285e-03, 4.3404785181298680e-03, 0., 0.,
             1.3426557799468830e-03, 0., 0., 0., 2.5290203431560495e-03,
             0., 1.8710949754379581e-02, 0., 4.1091388316774830e-05,
             2.3603728537980881e-03, 1.3354701650703069e-04,
             1.6528947526292938e-03, 1.1902399873998382e-03,
             4.1091388316774830e-05, 0., 0., 0., 1.4686959862050273e-03,
             0., 1.5333227673996960e-02, 0., 1.1902399873998382e-03,
             1.9350718086381968e-04, 0., 0., 1.3354701650703069e-04,
             5.9511999369991908e-04, 0., 4.1091388316774830e-05, 0.,
             9.2455628190255858e-05, 0., 0., 0., 4.1292716219823661e-03,
             6.3621138201669391e-04, 1.5614728276776434e-03,
             2.4521721853351607e-03, 0., 2.2416217432474714e-03,
             1.2120675847311353e-04, 0., 0., 0., 4.1091388316774830e-05,
             1.6652904216590270e-03, 0., 4.1091388316774830e-05, 0.,
             1.4792900510440937e-03, 5.7310225290911690e-03, 0., 0., 0.,
             3.0483158509408970e-04, 1.8778156092900131e-03,
             9.2455628190255858e-05, 0., 4.1091388316774830e-05, 0., 0.,
             0., 0., 0., 0., 5.9511999369991908e-04, 0., 0., 0.,
             8.1149073394944180e-05, 8.1149073394944180e-05,
             2.8039369091872768e-02, 7.6249656020548756e-03,
             4.0057685078169350e-05, 1.0531025024120351e-02,
             5.1020408733462802e-05, 0., 0., 4.9309667174133112e-04, 0.,
             1.2345679610231784e-04, 2.1431214451265355e-02,
             2.6462910071084591e-03, 6.1655346784364896e-04, 0., 0., 0.,
             6.2500001862645163e-04, 7.1501453630544529e-04,
             4.0329866769378414e-03, 0., 2.1367071859260964e-03, 0.,
             2.5054987093857405e-02, 6.0850500848363032e-04,
             1.2345679610231784e-04, 7.1089831657884794e-03,
             5.4690413312110230e-03, 0., 0., 1.8898960223239850e-03, 0.,
             2.8098673265759561e-04, 0., 2.3762953698573504e-02, 0.,
             5.5712076641899352e-02, 0., 2.4691359220463567e-04,
             4.8223673872509311e-03, 1.5934264537153390e-03,
             6.2052161633597731e-03, 7.1199717323056078e-04,
             6.0291217881991606e-04, 0., 0., 4.0444352875991345e-04,
             2.8755244726373468e-03, 1.3729361665042470e-03,
             5.0899525405901862e-02, 0., 0., 6.2500001862645163e-04, 0.,
             0., 9.8619334348266224e-04, 0., 1.1437232800379400e-03, 0.,
             1.2345679610231784e-04, 0., 1.2345679610231784e-04,
             6.1655346784364896e-04, 0., 5.5041185025021333e-03,
             4.9309667174133112e-04, 1.2345679610231784e-04,
             6.4505994904165941e-03, 0., 1.3019292995800038e-02,
             3.6110210281393431e-04, 0., 0., 1.5752993655527778e-04,
             1.9272602209721712e-03, 6.6509641830577414e-03, 0.,
             1.5752993655527778e-04, 0., 8.6805560729569936e-04,
             1.1569884078469532e-02, 0., 0., 0., 6.5799540634140646e-04,
             3.1084350670856180e-03, 6.5062660829660890e-04, 0.,
             4.9309667174133112e-04, 0., 3.1887757953028353e-04,
             1.5752993655527778e-04, 1.5752993655527778e-04,
             5.6689344515470710e-04, 0., 1.2345679610231784e-04, 0.,
             1.7510376638184347e-03, 0., 2.6555529864741279e-04,
             2.8697127728280502e-04, 3.9580497221568318e-02,
             1.1052772525732559e-03, 0., 5.1020408733462802e-05,
             4.7896216503670618e-04, 0., 0., 1.9837333123330636e-04, 0.,
             0., 1.7939825277830670e-03, 0., 0., 2.2956842506993702e-04,
             0., 0., 1.9837333123330636e-04, 0., 9.6367946556140047e-04,
             0., 1.9837333123330636e-04, 0., 2.6300407254927216e-03,
             5.1020408733462802e-05, 1.9837333123330636e-04,
             1.3150203627463608e-03, 0., 0., 1.9837333123330636e-04, 0.,
             0., 2.2956842506993702e-04, 0., 1.4821986001430365e-03, 0.,
             5.7248064292131813e-03, 0., 0., 3.9674666246661272e-04, 0.,
             1.9837333123330636e-04, 0., 0., 0., 0.,
             1.9837333123330636e-04, 4.5913685013987404e-04,
             1.9837333123330636e-04, 4.4865070886427327e-03, 0.,
             1.9837333123330636e-04, 0., 0., 0., 4.2794175630324338e-04,
             0., 0., 0., 0., 0., 0., 0., 0., 6.0082829740046393e-04, 0.,
             1.9837333123330636e-04, 0., 0., 5.8100298582978386e-04, 0.,
             0., 0., 0., 0., 1.0204081746692560e-04, 0.,
             6.5751018137318040e-04, 0., 0., 7.2835590500347535e-04, 0.,
             0., 0., 0., 2.2956842506993702e-04, 0.,
             2.2956842506993702e-04, 0., 0., 0., 0., 0., 0., 0., 0., 0.,
             0., 0., 1.0204081746692560e-04, 0., 9.3387529924880142e-03,
             1.2913223910183957e-04, 0., 0., 0., 1.2913223910183957e-04,
             0., 0., 0., 0., 1.2913223910183957e-04,
             1.2913223910183957e-04, 1.2913223910183957e-04,
             1.2913223910183957e-04, 1.2913223910183957e-04, 0., 0., 0.,
             0., 0., 0., 0., 5.1652895640735830e-04,
             1.2913223910183957e-04, 0., 2.5826447820367915e-04,
             1.2913223910183957e-04, 0., 0., 1.2913223910183957e-04, 0.,
             0., 0., 0., 0., 7.7479343461103745e-04, 0., 0.,
             1.2913223910183957e-04, 0., 0., 1.2913223910183957e-04, 0.,
             0., 1.2913223910183957e-04, 0., 0., 0.,
             7.7479343461103745e-04, 0., 1.2913223910183957e-04, 0.,
             1.2913223910183957e-04, 0., 0., 1.2913223910183957e-04, 0.,
             0., 0., 0., 0., 0., 0., 5.1652895640735830e-04, 0., 0.,
             2.5826447820367915e-04, 0., 7.7479343461103745e-04,
             2.5826447820367915e-04, 0., 0., 0., 0., 0.,
             1.2913223910183957e-04, 2.5826447820367915e-04, 0., 0.,
             1.4204545877873898e-03, 1.2913223910183957e-04, 0., 0.,
             1.2913223910183957e-04, 0., 0., 0., 0., 0., 0., 0., 0., 0.,
             1.2913223910183957e-04, 0., 0., 0., 1.2913223910183957e-04,
             0., 1.2913223910183957e-04, 2.7117770634714766e-03, 0.,
             5.9511999369991908e-04, 0., 0., 0., 1.9837333123330636e-04,
             0., 0., 0., 5.9511999369991908e-04, 0., 0., 0., 0., 0., 0.,
             0., 3.9674666246661272e-04, 0., 0., 0.,
             1.1902399873998382e-03, 7.9349332493322544e-04, 0.,
             1.9837333123330636e-04, 1.3886133711020210e-03, 0., 0.,
             3.9674666246661272e-04, 0., 0., 0., 1.9837333123330636e-04,
             0., 9.9186660369765534e-04, 0., 0., 1.9837333123330636e-04,
             0., 0., 3.9674666246661272e-04, 0., 0., 0., 0.,
             3.9674666246661272e-04, 0., 3.9674666246661272e-04, 0.,
             3.9674666246661272e-04, 0., 0., 0., 0.,
             1.9837333123330636e-04, 0., 0., 0., 0., 0., 0., 0.,
             1.1902399873998382e-03, 1.9837333123330636e-04, 0.,
             5.9511999369991908e-04, 0., 0., 0., 0., 0., 0., 0., 0., 0.,
             0., 0., 0., 5.9511999369991908e-04, 0., 0., 0., 0.,
             5.9511999369991908e-04, 0., 0., 0., 0., 0., 0., 0., 0., 0.,
             1.9837333123330636e-04, 0., 0., 0., 0., 0.,
             1.7853599286308808e-03, 6.7730277033346874e-04,
             2.2709175893170807e-04, 4.9309667174133112e-04,
             1.9837333123330636e-04, 0., 0., 3.3104860587892778e-03, 0.,
             0., 4.5022421382190448e-03, 2.4654832990064898e-04,
             1.6436555326709932e-04, 0., 0., 0., 1.9837333123330636e-04,
             0., 3.0197039138626655e-03, 0., 2.4902072647236349e-03, 0.,
             1.6451380115813288e-02, 2.1255151101000694e-04,
             1.9837333123330636e-04, 7.6656915731758619e-04,
             3.5996058338580829e-04, 2.7777780675225863e-04,
             1.9837333123330636e-04, 1.6436555326709932e-04, 0., 0., 0.,
             6.6845078533230755e-03, 0., 1.6630973043204534e-02, 0.,
             4.1091388316774830e-05, 4.3783805078338755e-04,
             2.0545694158387415e-04, 6.8160807956943914e-04, 0.,
             4.1091388316774830e-05, 0., 0., 1.9837333123330636e-04,
             9.7060926857502235e-04, 1.9837333123330636e-04,
             2.0407958218139149e-02, 0., 1.9837333123330636e-04,
             4.1091388316774830e-05, 0., 0., 5.6819582608427983e-04, 0.,
             3.2873110653419864e-04, 4.1091388316774830e-05, 0., 0.,
             2.7777780675225863e-04, 1.6436555326709932e-04, 0.,
             1.3221247708221035e-03, 2.0545694158387415e-04,
             2.8055610786685602e-04, 6.0217233306682615e-03, 0.,
             1.5757567468934197e-03, 4.1091388316774830e-05, 0., 0., 0.,
             2.0545694158387415e-04, 1.0543632695768343e-02, 0.,
             2.3946471955008119e-04, 0., 0., 5.8983143173482362e-03,
             2.7777780675225863e-04, 0., 0., 0., 2.7777780675225863e-04,
             1.6436555326709932e-04, 0., 2.0545694158387415e-04, 0., 0.,
             0., 0., 0., 0., 7.5275693735847929e-05, 0.,
             8.1632653973540484e-04, 0., 4.1091388316774830e-05,
             4.1091388316774830e-05, 2.8189935683019342e-02, 0., 0., 0.,
             0., 0., 0., 0., 0., 0., 0., 0., 0., 0., 0., 0., 0., 0., 0.,
             0., 0., 0., 0., 0., 0., 0., 0., 0., 0., 0., 0., 0., 0., 0.,
             0., 0., 0., 0., 0., 0., 0., 0., 0., 0., 0., 0., 0., 0., 0.,
             0., 0., 0., 0., 0., 0., 0., 0., 0., 0., 0., 0., 0., 0., 0.,
             0., 0., 0., 0., 0., 0., 0., 0., 0., 0., 0., 0., 0., 0., 0.,
             0., 0., 0., 0., 0., 0., 0., 0., 0., 0., 0., 0., 0., 0., 0.,
             0., 0., 0., 0., 0., 0., 0., 0., 0., 1.2345679610231784e-04,
             0., 0., 0., 0., 0., 1.2345679610231784e-04,
             2.4691359220463567e-04, 1.2345679610231784e-04,
             1.2345679610231784e-04, 0., 0., 0., 0.,
             1.2345679610231784e-04, 3.7037039865498236e-04, 0.,
             1.2345679610231784e-04, 0., 7.4074079730996473e-04,
             1.2345679610231784e-04, 1.2345679610231784e-04, 0.,
             2.4691359220463567e-04, 0., 0., 0., 0.,
             1.2345679610231784e-04, 0., 3.7037039865498236e-04, 0.,
             1.3580247260814096e-03, 0., 2.4691359220463567e-04,
             1.2345679610231784e-04, 1.2345679610231784e-04,
             2.4691359220463567e-04, 0., 2.4691359220463567e-04, 0., 0.,
             2.4691359220463567e-04, 0., 1.2345679610231784e-04,
             8.6419758306425370e-04, 0., 0., 0., 0., 0., 0., 0., 0., 0.,
             1.2345679610231784e-04, 0., 1.2345679610231784e-04,
             1.2345679610231784e-04, 0., 0., 0., 1.2345679610231784e-04,
             4.9382718440927134e-04, 0., 1.2345679610231784e-04,
             1.2345679610231784e-04, 0., 0., 0., 0., 0., 0., 0., 0., 0.,
             4.9382718440927134e-04, 0., 0., 0., 0., 0., 0., 0., 0., 0.,
             0., 0., 0., 0., 0., 1.2345679610231784e-04, 0., 0., 0.,
             1.2345679610231784e-04, 2.4691359220463567e-04,
             2.2222223091456633e-03, 3.4613258335593589e-02,
             3.2217025533312570e-03, 2.1431214451265355e-02,
             1.7939825277830670e-03, 1.2913223910183957e-04,
             5.9511999369991908e-04, 4.5022421382190448e-03, 0.,
             2.4691359220463567e-04, 2.0284791495743393e-01,
             6.6483951612416881e-03, 8.6914250304780637e-04,
             1.2769743644515247e-03, 1.2913223910183957e-04,
             1.5241579254704485e-03, 2.1354379074208715e-03,
             2.0155159819488285e-03, 1.8949736762945979e-02, 0.,
             8.8044430200280265e-03, 0., 1.6688553950511170e-01,
             1.1641573866495619e-02, 8.4203358590455475e-04,
             4.5155433183497164e-02, 2.4559748427786077e-02,
             8.3333345130086334e-04, 5.9511999369991908e-04,
             2.4758784818955298e-02, 0., 2.4244987185565742e-03,
             2.9031787646804919e-04, 1.0566684738687658e-01, 0.,
             3.5489119688109072e-01, 0., 1.1464739876763707e-03,
             2.0796928297854459e-02, 9.7117769361764091e-03,
             2.2049720805727115e-02, 1.6268831757079980e-02,
             1.3701899109069314e-03, 8.6505190955932579e-04,
             1.2913223910183957e-04, 1.5090270089232645e-03,
             4.8633043421337938e-02, 2.9244991018726619e-03,
             4.0810812824568587e-01, 0., 2.4027734702015968e-03,
             5.3230642542232637e-03, 1.2913223910183957e-04, 0.,
             3.6591691593251584e-03, 1.9742522700546619e-03,
             2.0159363444849157e-03, 1.7970186327379090e-03,
             5.3723146867268486e-04, 2.7736689352579266e-04,
             1.0802470435054990e-03, 1.8878523892956519e-03,
             2.9031787646804919e-04, 3.4744962907308705e-02,
             1.2525822187083495e-03, 1.1707646924387534e-03,
             3.0792091611446266e-02, 5.9999997317791015e-04,
             7.9025287450349813e-02, 3.2175978980616519e-03, 0., 0.,
             4.2007983081407407e-04, 5.5280991083536098e-03,
             6.4308616961732790e-02, 1.2913223910183957e-04,
             4.8217953298620520e-03, 0., 3.4454624807433651e-03,
             8.0483435401985673e-02, 1.5721288605908823e-03, 0., 0.,
             6.7935182220253687e-03, 2.1837164871993383e-02,
             6.9783209951398903e-03, 1.1478421253496851e-03,
             9.4778010147647963e-04, 0., 4.4642859138548374e-03,
             4.2007983081407407e-04, 1.6394061711904329e-03,
             2.8814824157554486e-03, 1.2913223910183957e-04,
             3.2787474482945979e-03, 8.6505190955932579e-04,
             9.9210205357916706e-03, 7.0976799203793794e-04,
             2.6709975928889407e-03, 2.1599611060550915e-03,
             2.9852169278626856e-01, 4.5249255080481729e-03,
             1.5614728276776434e-03, 2.6462910071084591e-03, 0.,
             1.2913223910183957e-04, 0., 2.4654832990064898e-04, 0.,
             1.2345679610231784e-04, 6.6483951612416881e-03,
             5.0036014701531411e-03, 4.1695458847125673e-04,
             1.2913223910183957e-04, 1.2913223910183957e-04, 0., 0.,
             2.2847675380583635e-04, 1.7797438640533092e-03, 0.,
             1.1213646681834276e-03, 0., 2.7939502975813154e-02,
             1.6525890098721832e-03, 1.2345679610231784e-04,
             2.6559803539943417e-03, 1.7742379374992975e-03, 0., 0.,
             2.9349779236893889e-04, 0., 2.2847675380583635e-04, 0.,
             8.9640509539763488e-03, 0., 3.1130906851776691e-02, 0.,
             3.2909636883818533e-04, 4.7520331780786258e-03,
             9.2298057464085476e-04, 5.6077757140134098e-03,
             1.6882690586943333e-03, 3.2909636883818533e-04, 0.,
             1.2913223910183957e-04, 3.5193354990815419e-04, 0.,
             1.2345679610231784e-04, 2.7372374444210840e-02, 0.,
             1.2913223910183957e-04, 5.4131962677342370e-04,
             1.2913223910183957e-04, 0., 4.1091388316774830e-04,
             1.2913223910183957e-04, 4.3375106423771716e-04,
             8.2182776633549660e-05, 1.2345679610231784e-04, 0.,
             1.2345679610231784e-04, 7.4695919950929120e-04, 0.,
             2.5925305825204082e-03, 2.4654832990064898e-04,
             1.7671124004135109e-03, 3.1431716787130156e-03,
             9.9999995529651692e-05, 4.9416001244415699e-03,
             5.6892400864306516e-04, 0., 0., 1.0501995770351852e-04,
             6.8948385866115158e-04, 2.9560521416710159e-03,
             1.2913223910183957e-04, 5.4546720807039902e-04, 0.,
             1.4792900510440937e-03, 6.2259127638506087e-03,
             1.2913223910183957e-04, 0., 0., 6.8210768773972752e-04,
             1.3717421329234036e-03, 2.6938551097061784e-04, 0.,
             2.4654832990064898e-04, 0., 0., 1.0501995770351852e-04,
             1.0501995770351852e-04, 0., 1.2913223910183957e-04,
             2.2345679163196953e-04, 0., 1.2450079121312276e-03,
             1.2913223910183957e-04, 2.0563957273586750e-04,
             5.5822860346967660e-04, 2.2131947981068566e-02,
             1.2913223910183957e-04, 0., 6.1655346784364896e-04, 0.,
             1.2913223910183957e-04, 0., 1.6436555326709932e-04, 0.,
             1.2345679610231784e-04, 8.6914250304780637e-04,
             4.1695458847125673e-04, 4.1695458847125673e-04,
             1.2913223910183957e-04, 1.2913223910183957e-04, 0., 0.,
             1.2345679610231784e-04, 5.3473595192208168e-04, 0.,
             4.5218790263651647e-04, 0., 1.7503664254586541e-03,
             2.5258903520415741e-04, 1.2345679610231784e-04,
             5.8699558473787779e-04, 3.7604583130647525e-04, 0., 0.,
             2.9349779236893889e-04, 0., 1.2345679610231784e-04, 0.,
             2.0140260029661745e-03, 0., 3.7764737650036392e-03, 0.,
             2.4691359220463567e-04, 2.5258903520415741e-04,
             2.8782234936941715e-04, 4.1127914547173499e-04,
             1.2913223910183957e-04, 2.4691359220463567e-04, 0.,
             1.2913223910183957e-04, 2.4691359220463567e-04, 0.,
             1.2345679610231784e-04, 2.9539154438120857e-03, 0.,
             1.2913223910183957e-04, 0., 1.2913223910183957e-04, 0.,
             3.2873110653419864e-04, 1.2913223910183957e-04,
             3.2873110653419864e-04, 0., 1.2345679610231784e-04, 0.,
             1.2345679610231784e-04, 2.8782234936941715e-04, 0.,
             8.4526006294155694e-04, 1.6436555326709932e-04,
             1.2345679610231784e-04, 1.0808227691471491e-03, 0.,
             1.7200780328689514e-03, 3.8172127430599698e-04, 0., 0., 0.,
             1.6436555326709932e-04, 0., 1.2913223910183957e-04,
             2.5826447820367915e-04, 0., 0., 2.9004751156793233e-03,
             1.2913223910183957e-04, 0., 0., 1.2913223910183957e-04, 0.,
             1.6436555326709932e-04, 0., 1.6436555326709932e-04, 0., 0.,
             0., 0., 0., 1.2913223910183957e-04, 1.2345679610231784e-04,
             0., 0., 1.2913223910183957e-04, 1.2345679610231784e-04,
             3.7604583130647525e-04, 5.9201927160998022e-03,
             5.8826908924171362e-04, 0., 0., 2.2956842506993702e-04,
             1.2913223910183957e-04, 0., 0., 0., 0.,
             1.2769743644515247e-03, 1.2913223910183957e-04,
             1.2913223910183957e-04, 3.5870066417177660e-04,
             1.2913223910183957e-04, 0., 0., 0., 0., 0., 0., 0.,
             2.3530763569668545e-03, 1.2913223910183957e-04, 0.,
             1.1765381784834272e-03, 1.2913223910183957e-04, 0., 0.,
             1.2913223910183957e-04, 0., 2.2956842506993702e-04, 0.,
             6.8870527520981106e-04, 0., 2.6113408351705336e-03, 0., 0.,
             1.2913223910183957e-04, 0., 0., 1.2913223910183957e-04, 0.,
             0., 1.2913223910183957e-04, 0., 4.5913685013987404e-04, 0.,
             3.3000461103803447e-03, 0., 1.2913223910183957e-04, 0.,
             1.2913223910183957e-04, 0., 2.2956842506993702e-04,
             1.2913223910183957e-04, 0., 0., 0., 0., 0., 0., 0.,
             5.1652895640735830e-04, 0., 0., 2.5826447820367915e-04, 0.,
             1.0043618596809745e-03, 2.5826447820367915e-04, 0., 0., 0.,
             0., 0., 1.2913223910183957e-04, 7.1740132834355319e-04, 0.,
             0., 1.6500230128573268e-03, 1.2913223910183957e-04, 0., 0.,
             1.2913223910183957e-04, 2.2956842506993702e-04, 0.,
             2.2956842506993702e-04, 0., 0., 0., 0., 0., 0.,
             1.2913223910183957e-04, 0., 0., 0., 1.2913223910183957e-04,
             0., 1.2913223910183957e-04, 5.6961665893806579e-03,
             1.2913223910183957e-04, 0., 0., 0., 1.2913223910183957e-04,
             0., 0., 0., 0., 1.2913223910183957e-04,
             1.2913223910183957e-04, 1.2913223910183957e-04,
             1.2913223910183957e-04, 1.2913223910183957e-04, 0., 0., 0.,
             0., 0., 0., 0., 5.1652895640735830e-04,
             1.2913223910183957e-04, 0., 2.5826447820367915e-04,
             1.2913223910183957e-04, 0., 0., 1.2913223910183957e-04, 0.,
             0., 0., 0., 0., 7.7479343461103745e-04, 0., 0.,
             1.2913223910183957e-04, 0., 0., 1.2913223910183957e-04, 0.,
             0., 1.2913223910183957e-04, 0., 0., 0.,
             7.7479343461103745e-04, 0., 1.2913223910183957e-04, 0.,
             1.2913223910183957e-04, 0., 0., 1.2913223910183957e-04, 0.,
             0., 0., 0., 0., 0., 0., 5.1652895640735830e-04, 0., 0.,
             2.5826447820367915e-04, 0., 7.7479343461103745e-04,
             2.5826447820367915e-04, 0., 0., 0., 0., 0.,
             1.2913223910183957e-04, 2.5826447820367915e-04, 0., 0.,
             1.4204545877873898e-03, 1.2913223910183957e-04, 0., 0.,
             1.2913223910183957e-04, 0., 0., 0., 0., 0., 0., 0., 0., 0.,
             1.2913223910183957e-04, 0., 0., 0., 1.2913223910183957e-04,
             0., 1.2913223910183957e-04, 2.7117770634714766e-03,
             9.1449475528226909e-04, 1.5241579254704485e-04, 0., 0., 0.,
             0., 0., 0., 0., 1.5241579254704485e-03, 0., 0., 0., 0.,
             3.0483158509408970e-04, 0., 1.5241579254704485e-04, 0., 0.,
             3.0483158509408970e-04, 0., 2.7434841738643301e-03, 0., 0.,
             1.2193263403763588e-03, 0., 0., 0., 3.0483158509408970e-04,
             0., 1.5241579254704485e-04, 0., 1.5241579254704485e-03, 0.,
             1.9814053031115830e-03, 0., 0., 3.0483158509408970e-04, 0.,
             4.5724737764113454e-04, 0., 0., 0., 0., 0.,
             1.5241579254704485e-04, 0., 3.2007316434879418e-03, 0., 0.,
             1.5241579254704485e-04, 0., 0., 0., 0.,
             1.5241579254704485e-04, 0., 0., 0., 0., 0., 0.,
             7.6207896273522424e-04, 0., 0., 1.5241579254704485e-04, 0.,
             1.0669105478293139e-03, 1.5241579254704485e-04, 0., 0., 0.,
             0., 3.0483158509408970e-04, 0., 0., 0.,
             3.0483158509408970e-04, 1.0669105478293139e-03,
             1.5241579254704485e-04, 0., 0., 3.0483158509408970e-04,
             1.5241579254704485e-04, 0., 0., 0., 0., 0., 0.,
             3.0483158509408970e-04, 0., 0., 0., 0., 0., 0., 0., 0.,
             4.2676421913172558e-03, 7.4027893193394367e-04, 0.,
             6.2500001862645163e-04, 1.9837333123330636e-04, 0., 0.,
             1.9837333123330636e-04, 0., 0., 2.1354379074208715e-03, 0.,
             0., 0., 0., 0., 9.6853228809378258e-04, 0.,
             3.4353226946733095e-04, 0., 1.9837333123330636e-04, 0.,
             3.2491291803148081e-03, 0., 1.9837333123330636e-04,
             1.1669056193270889e-03, 0., 0., 1.9837333123330636e-04, 0.,
             0., 0., 1.4515893823402459e-04, 4.2088112479674034e-03, 0.,
             1.1847311220217843e-02, 0., 0., 1.0217466810930644e-03, 0.,
             1.5935323067202342e-03, 0., 0., 0., 0.,
             1.9837333123330636e-04, 0., 1.9837333123330636e-04,
             3.8386150512908571e-03, 0., 1.9837333123330636e-04,
             6.2500001862645163e-04, 0., 0., 1.9837333123330636e-04, 0.,
             0., 0., 1.4515893823402459e-04, 0., 0., 0.,
             1.4515893823402459e-04, 1.0217466810930644e-03, 0.,
             1.9837333123330636e-04, 1.2500000372529033e-03, 0.,
             4.0048038498453342e-03, 0., 0., 0., 0., 0.,
             6.2500001862645163e-04, 0., 1.9837333123330636e-04, 0., 0.,
             2.1830181869652611e-03, 0., 0., 0., 0., 0., 0., 0.,
             1.4515893823402459e-04, 0., 0., 0., 0., 0., 0., 0., 0.,
             6.2500001862645163e-04, 2.9031787646804919e-04, 0., 0.,
             6.0062374540934063e-03, 1.1728871923897891e-03,
             1.5241579254704485e-04, 7.1501453630544529e-04, 0., 0., 0.,
             0., 0., 1.2345679610231784e-04, 2.0155159819488285e-03,
             2.2847675380583635e-04, 1.2345679610231784e-04, 0., 0.,
             1.5241579254704485e-04, 0., 1.1624103532675784e-03,
             8.0439820230283204e-04, 0., 2.2847675380583635e-04, 0.,
             7.4203212189047352e-03, 5.5748459975016752e-04,
             1.2345679610231784e-04, 2.7168606505720665e-03,
             6.9942355317500170e-04, 0., 0., 1.5241579254704485e-04, 0.,
             1.7596677495407709e-04, 0., 6.6576193626613524e-03, 0.,
             1.2366489900866508e-02, 0., 2.4691359220463567e-04,
             1.1964381747968213e-03, 2.2847675380583635e-04,
             1.1149691995003350e-03, 0., 2.4691359220463567e-04, 0., 0.,
             2.9942357105639493e-04, 0., 1.2345679610231784e-04,
             8.0169479538300600e-03, 0., 0., 1.5241579254704485e-04, 0.,
             0., 0., 0., 5.2509978851759259e-05, 0.,
             1.2345679610231784e-04, 0., 1.2345679610231784e-04,
             1.2345679610231784e-04, 0., 9.4889930414897641e-04, 0.,
             1.2345679610231784e-04, 5.9884714211278986e-04, 0.,
             1.8007839687947400e-03, 1.7596677495407709e-04, 0., 0.,
             5.2509978851759259e-05, 0., 5.2509978851759259e-05, 0.,
             5.2509978851759259e-05, 0., 8.6805560729569936e-04,
             3.1852905743949139e-03, 0., 0., 0., 4.0985154279760821e-04,
             3.9999998211860677e-04, 5.2509978851759259e-05, 0., 0., 0.,
             0., 5.2509978851759259e-05, 5.2509978851759259e-05, 0., 0.,
             1.2345679610231784e-04, 0., 0., 0., 1.2345679610231784e-04,
             2.4691359220463567e-04, 1.2418663528639837e-02,
             1.1111810062522594e-02, 6.5322504998246364e-03,
             4.0329866769378414e-03, 9.6367946556140047e-04, 0.,
             3.9674666246661272e-04, 3.0197039138626655e-03, 0.,
             3.7037039865498236e-04, 1.8949736762945979e-02,
             1.7797438640533092e-03, 5.3473595192208168e-04, 0., 0., 0.,
             3.4353226946733095e-04, 8.0439820230283204e-04,
             8.8601870568466315e-02, 0., 6.3904049168765787e-03, 0.,
             4.8751203171368426e-02, 7.2136559905276627e-03,
             5.6874372988828872e-04, 5.8232143479054286e-03,
             8.2929158742394531e-03, 0., 1.9837333123330636e-04,
             3.2718331712096706e-03, 0., 3.7037039865498236e-04,
             1.4515893823402459e-04, 3.6525344076355402e-02, 0.,
             1.3905430794553331e-01, 0., 9.8488142230996473e-04,
             7.2174696315359249e-03, 2.0942183849656524e-03,
             8.6241660135323410e-03, 2.1230617194557821e-03,
             7.4074079730996473e-04, 8.6505190955932579e-04, 0.,
             1.3918076263567912e-03, 4.6607965320318995e-03,
             5.6874372988828872e-04, 1.5657358357717038e-01, 0.,
             1.2360072811665318e-03, 4.7370905006993702e-04, 0., 0.,
             1.3259788498190903e-03, 3.9674666246661272e-04,
             3.2873110653419864e-04, 0., 5.1552933688900696e-04,
             5.5473378705158533e-04, 3.7037039865498236e-04,
             7.6430437699201870e-04, 1.4515893823402459e-04,
             1.8943583029142064e-02, 1.6016948800368922e-03,
             5.6874372988828872e-04, 1.5169876047006698e-02,
             9.9999995529651692e-05, 1.5792627672374809e-02,
             2.1329084595721783e-03, 0., 0., 0., 1.1185725994884545e-03,
             9.4997860546644844e-03, 0., 5.4251395176295805e-04, 0.,
             8.6805560729569936e-04, 5.2459515692899347e-02, 0., 0., 0.,
             6.8587106646170182e-04, 2.7204685882117087e-03,
             7.1909934031868464e-04, 0., 3.0952449150112391e-04, 0.,
             3.1887757953028353e-04, 0., 0., 2.4414062500000000e-04, 0.,
             1.9527199083292542e-03, 8.6505190955932579e-04,
             5.1843892816171994e-03, 2.9031787646804919e-04,
             2.7822516977697685e-03, 1.7220098232982144e-03,
             3.2283282304447819e-01, 6.1557403194900662e-04, 0., 0., 0.,
             0., 0., 0., 0., 0., 0., 0., 0., 0., 0., 0., 0., 0., 0.,
             8.2431597238186161e-04, 3.0778701597450331e-04, 0.,
             9.2549140579342160e-03, 0., 0., 0., 0., 0., 0., 0., 0., 0.,
             0., 1.8573738851965782e-03, 0., 4.2206249374509563e-03, 0.,
             0., 6.1557403194900662e-04, 0., 0., 0., 0., 0., 0., 0., 0.,
             0., 5.8799088408956202e-03, 0., 0., 0., 0., 0., 0., 0., 0.,
             0., 0., 0., 0., 0., 0., 3.0778701597450331e-04, 0.,
             3.0778701597450331e-04, 1.5495868692220749e-03, 0.,
             3.0778701597450331e-04, 0., 0., 0., 0., 0.,
             2.5826447820367915e-03, 0., 0., 0., 0.,
             3.8137928459348047e-03, 0., 0., 0., 0.,
             3.0778701597450331e-04, 0., 0., 3.0778701597450331e-04, 0.,
             0., 0., 0., 0., 0., 0., 0., 0., 0., 0., 0.,
             7.2101018110038995e-03, 3.5029013332437478e-03,
             1.8600037061493324e-04, 2.1367071859260964e-03,
             1.9837333123330636e-04, 0., 0., 2.4902072647236349e-03, 0.,
             1.2345679610231784e-04, 8.8044430200280265e-03,
             1.1213646681834276e-03, 4.5218790263651647e-04, 0., 0.,
             3.0483158509408970e-04, 1.9837333123330636e-04,
             2.2847675380583635e-04, 6.3904049168765787e-03,
             3.0778701597450331e-04, 6.8360766048954141e-03, 0.,
             3.5243515272518414e-02, 4.8655969458402063e-04,
             3.2183012733562420e-04, 7.0962758237492251e-03,
             7.2465686566016308e-04, 0., 1.9837333123330636e-04,
             1.4475902697295108e-03, 0., 5.3330833889992605e-04, 0.,
             1.2127469735039090e-02, 0., 3.3680310308075730e-02, 0.,
             2.4691359220463567e-04, 2.1734283894661050e-03,
             6.6222781804355351e-04, 2.9180509390739663e-03,
             3.2760614939949528e-03, 9.5891076543519645e-04, 0., 0.,
             5.5030688114146055e-04, 1.8722435528150646e-03,
             3.2183012733562420e-04, 3.3637813184171007e-02, 0.,
             1.9837333123330636e-04, 2.2956842506993702e-04, 0., 0.,
             8.5583554430170364e-04, 0., 1.0673137558660055e-03, 0.,
             1.2345679610231784e-04, 0., 1.2345679610231784e-04,
             6.8175632770645350e-04, 0., 3.1301997124171168e-03,
             3.2873110653419864e-04, 6.2961714331012750e-04,
             8.4090126421432626e-03, 0., 8.9667353548674670e-03,
             5.3330833889992605e-04, 0., 0., 1.0501995770351852e-04,
             1.0407282797647594e-03, 1.1208367820340112e-02, 0.,
             3.0339328893682488e-04, 0., 6.0966317018817939e-04,
             1.2500542542312209e-02, 3.0483158509408970e-04, 0., 0.,
             2.1003991540703704e-04, 1.1534514796783385e-03,
             4.3375106423771716e-04, 0., 6.3651812250870195e-04, 0., 0.,
             1.0501995770351852e-04, 7.1468312789169791e-04, 0., 0.,
             3.7603858844467535e-04, 0., 9.4156559830049780e-04, 0.,
             1.2345679610231784e-04, 2.4691359220463567e-04,
             5.1159092165075221e-02, 0., 0., 0., 0., 0., 0., 0., 0., 0.,
             0., 0., 0., 0., 0., 0., 0., 0., 0., 0., 0., 0., 0., 0., 0.,
             0., 0., 0., 0., 0., 0., 0., 0., 0., 0., 0., 0., 0., 0., 0.,
             0., 0., 0., 0., 0., 0., 0., 0., 0., 0., 0., 0., 0., 0., 0.,
             0., 0., 0., 0., 0., 0., 0., 0., 0., 0., 0., 0., 0., 0., 0.,
             0., 0., 0., 0., 0., 0., 0., 0., 0., 0., 0., 0., 0., 0., 0.,
             0., 0., 0., 0., 0., 0., 0., 0., 0., 0., 0., 0., 0., 0., 0.,
             0., 8.1327587253117450e-02, 1.5477985263467343e-02,
             2.5054987093857405e-02, 2.6300407254927216e-03,
             5.1652895640735830e-04, 1.1902399873998382e-03,
             1.6451380115813288e-02, 0., 7.4074079730996473e-04,
             1.6688553950511170e-01, 2.7939502975813154e-02,
             1.7503664254586541e-03, 2.3530763569668545e-03,
             5.1652895640735830e-04, 2.7434841738643301e-03,
             3.2491291803148081e-03, 7.4203212189047352e-03,
             4.8751203171368426e-02, 9.2549140579342160e-03,
             3.5243515272518414e-02, 0., 8.1973172370092673e-01,
             1.3110664160689692e-02, 1.5342341222431902e-03,
             7.8612339366922468e-02, 2.5989670319316684e-02,
             1.6666669026017267e-03, 7.9349332493322544e-04,
             1.3342749982753626e-02, 0., 3.9694869068257962e-03,
             5.8063575293609837e-04, 2.3872696401506302e-01, 0.,
             7.5006791363691627e-01, 0., 3.2315573579367041e-03,
             6.0827967653970000e-02, 1.0602732778793872e-02,
             6.6010041194359256e-02, 3.3271667862799781e-02,
             3.3025659160131060e-03, 2.5951557834616584e-03,
             5.1652895640735830e-04, 9.2428037144250408e-03,
             4.7908281667231767e-02, 1.9507272330394447e-03,
             6.5351111277631646e-01, 0., 5.3994866311402601e-03,
             9.4962575984275863e-03, 5.1652895640735830e-04, 0.,
             5.5512210886726702e-03, 7.9567690369394539e-03,
             2.3783920524389976e-03, 1.6737444677875845e-03,
             1.3213765502460631e-03, 1.8491125638051172e-04,
             2.4074076999116914e-03, 4.2182269949604771e-03,
             5.8063575293609837e-04, 8.8698205257792762e-02,
             1.7244280474579441e-03, 1.6647897811192171e-02,
             7.8883515147032165e-02, 3.9999998211860677e-04,
             1.2227744361284042e-01, 4.2727065433375089e-03, 0., 0.,
             6.3011974622111111e-04, 6.7270000804649406e-03,
             1.5345218556594054e-01, 5.1652895640735830e-04,
             8.2798415305234269e-03, 0., 1.3041396728514253e-02,
             1.9088720931435946e-01, 2.9452748217443092e-03, 0., 0.,
             6.4700390964027334e-03, 4.9779606069398546e-02,
             1.2636071560942706e-02, 1.8365474005594962e-03,
             7.2705641324842703e-03, 0., 0., 6.3011974622111111e-04,
             2.1542776716915596e-03, 5.9284931283101056e-03,
             5.1652895640735830e-04, 4.7640055229637712e-03,
             2.5951557834616584e-03, 1.8194076417026410e-02,
             1.6778004622795550e-03, 5.7095929593475496e-03,
             3.9042588635042727e-03, 7.1308654713563657e-01,
             1.0482082551310017e-03, 2.5664803454146096e-03,
             6.0850500848363032e-04, 5.1020408733462802e-05,
             1.2913223910183957e-04, 7.9349332493322544e-04,
             2.1255151101000694e-04, 0., 1.2345679610231784e-04,
             1.1641573866495619e-02, 1.6525890098721832e-03,
             2.5258903520415741e-04, 1.2913223910183957e-04,
             1.2913223910183957e-04, 0., 0., 5.5748459975016752e-04,
             7.2136559905276627e-03, 0., 4.8655969458402063e-04, 0.,
             1.3110664160689692e-02, 2.3724162225221383e-02,
             1.2345679610231784e-04, 6.5538410992794227e-03,
             7.3304992903825850e-03, 0., 0., 1.7161188889682905e-03, 0.,
             1.2345679610231784e-04, 0., 8.9340026793046680e-03, 0.,
             4.2263716388470679e-02, 0., 2.4691359220463567e-04,
             4.7141379167691339e-03, 1.2345679610231784e-04,
             3.9149691488363867e-03, 1.7116118871086897e-02,
             2.4691359220463567e-04, 0., 1.2913223910183957e-04,
             2.4691359220463567e-04, 1.7242624671406099e-03,
             1.2345679610231784e-04, 2.4617198520301246e-02, 0.,
             1.7161188889682905e-03, 0., 1.2913223910183957e-04, 0., 0.,
             9.2262556403506502e-04, 0., 0., 1.2345679610231784e-04, 0.,
             1.2345679610231784e-04, 1.2345679610231784e-04, 0.,
             7.3155983192564377e-03, 7.9349332493322544e-04,
             1.2345679610231784e-04, 6.4329502910772697e-03,
             1.3999999746680258e-03, 2.4513114349079216e-03,
             3.8172127430599698e-04, 0., 0., 0., 1.3999999746680258e-03,
             1.6404094100523669e-04, 1.2913223910183957e-04,
             1.6582644528717050e-03, 0., 8.6805560729569936e-04,
             7.6921397958302010e-03, 1.2913223910183957e-04, 0., 0.,
             1.2913223910183957e-04, 2.3804799747996763e-03, 0., 0., 0.,
             0., 0., 0., 0., 0., 1.2913223910183957e-04,
             2.3922257894394170e-03, 0., 1.3999999746680258e-03,
             1.2913223910183957e-04, 2.2549761356924344e-04,
             1.7760458059745011e-03, 3.9614771456955980e-02,
             5.9511999369991908e-04, 0., 1.2345679610231784e-04,
             1.9837333123330636e-04, 0., 0., 1.9837333123330636e-04, 0.,
             1.2345679610231784e-04, 8.4203358590455475e-04,
             1.2345679610231784e-04, 1.2345679610231784e-04, 0., 0., 0.,
             1.9837333123330636e-04, 1.2345679610231784e-04,
             5.6874372988828872e-04, 0., 3.2183012733562420e-04, 0.,
             1.5342341222431902e-03, 1.2345679610231784e-04,
             3.2183012733562420e-04, 3.9674666246661272e-04,
             2.4691359220463567e-04, 0., 1.9837333123330636e-04, 0., 0.,
             1.2345679610231784e-04, 0., 1.1638637235882078e-03, 0.,
             4.5319980258143114e-03, 0., 2.4691359220463567e-04,
             5.2020345856893056e-04, 1.2345679610231784e-04,
             4.4528692343794203e-04, 0., 2.4691359220463567e-04, 0., 0.,
             4.4528692343794203e-04, 0., 3.2183012733562420e-04,
             1.8560641867619090e-03, 0., 1.9837333123330636e-04, 0., 0.,
             0., 1.9837333123330636e-04, 0., 0., 0.,
             1.2345679610231784e-04, 0., 1.2345679610231784e-04,
             1.2345679610231784e-04, 0., 3.9674666246661272e-04, 0.,
             3.2183012733562420e-04, 4.9382718440927134e-04, 0.,
             3.2183012733562420e-04, 1.2345679610231784e-04, 0., 0., 0.,
             0., 0., 0., 1.9837333123330636e-04, 0., 0.,
             8.9057384687588406e-04, 0., 0., 0., 0., 0., 0., 0., 0., 0.,
             0., 0., 0., 0., 0., 1.2345679610231784e-04, 0., 0., 0.,
             1.2345679610231784e-04, 2.4691359220463567e-04,
             4.8010755627097695e-03, 1.4805462992841096e-02,
             1.0934587596578285e-03, 7.1089831657884794e-03,
             1.3150203627463608e-03, 2.5826447820367915e-04,
             1.9837333123330636e-04, 7.6656915731758619e-04, 0., 0.,
             4.5155433183497164e-02, 2.6559803539943417e-03,
             5.8699558473787779e-04, 1.1765381784834272e-03,
             2.5826447820367915e-04, 1.2193263403763588e-03,
             1.1669056193270889e-03, 2.7168606505720665e-03,
             5.8232143479054286e-03, 0., 7.0962758237492251e-03, 0.,
             7.8612339366922468e-02, 6.5538410992794227e-03,
             3.9674666246661272e-04, 3.8810428073680327e-02,
             3.7620328789373055e-03, 0., 3.9674666246661272e-04,
             8.5675423923827695e-03, 0., 1.8378825995702501e-03,
             1.4515893823402459e-04, 4.3665777183998583e-02, 0.,
             1.2547326643435203e-01, 0., 2.8523201331677483e-04,
             1.1394805363625752e-02, 1.6287599661182642e-03,
             1.1987331355059411e-02, 1.0522537209530114e-02,
             1.8210843213931768e-03, 1.7301038191186516e-03,
             2.5826447820367915e-04, 5.5427659902189050e-04,
             9.9451712408975372e-03, 3.9674666246661272e-04,
             1.0854924741768687e-01, 0., 1.2958984281369046e-03,
             1.3674794095843610e-03, 2.5826447820367915e-04, 0.,
             2.2577145891315327e-03, 1.0816378280634371e-03,
             1.5770711123588993e-03, 4.1091388316774830e-05,
             1.4515893823402459e-04, 0., 0., 3.2873110653419864e-04,
             1.4515893823402459e-04, 1.4194874087398736e-02,
             5.6819582608427983e-04, 4.7892943910016238e-04,
             9.2279796087844090e-03, 2.9999998658895508e-04,
             3.7158091178776650e-02, 1.4772292440146351e-03, 0., 0.,
             1.5752993655527778e-04, 2.9548233672063353e-03,
             1.9446418275739934e-02, 2.5826447820367915e-04,
             3.4925849558944747e-03, 0., 4.1283246697473297e-03,
             3.2413027625185262e-02, 1.0203434409389034e-03, 0., 0.,
             1.4878191065965038e-03, 8.3777766744994840e-03,
             1.8713026149747413e-03, 9.1827370027974808e-04,
             5.1498143308499806e-04, 0., 3.1887757953028353e-04,
             1.5752993655527778e-04, 1.6816878620257263e-03,
             2.4414062500000000e-04, 2.5826447820367915e-04,
             6.0040372269292309e-04, 1.7301038191186516e-03,
             4.6876007337554627e-03, 5.4858235467172833e-04,
             7.3361217425940727e-04, 5.9935585310940905e-04,
             1.1792195581167385e-01, 6.3666268658023033e-03,
             4.3404785181298680e-03, 5.4690413312110230e-03, 0.,
             1.2913223910183957e-04, 1.3886133711020210e-03,
             3.5996058338580829e-04, 0., 2.4691359220463567e-04,
             2.4559748427786077e-02, 1.7742379374992975e-03,
             3.7604583130647525e-04, 1.2913223910183957e-04,
             1.2913223910183957e-04, 0., 0., 6.9942355317500170e-04,
             8.2929158742394531e-03, 0., 7.2465686566016308e-04, 0.,
             2.5989670319316684e-02, 7.3304992903825850e-03,
             2.4691359220463567e-04, 3.7620328789373055e-03,
             2.0201763003006572e-02, 2.7777780675225863e-04, 0.,
             4.1512205550145783e-03, 0., 2.9942357105639493e-04, 0.,
             2.4513103023694967e-02, 0., 5.8925347195487220e-02, 0.,
             5.7600996104282100e-04, 4.3064308965541130e-03,
             1.8742561339547960e-03, 4.0368428080222530e-03,
             4.0063589507585012e-03, 5.7600996104282100e-04, 0.,
             1.2913223910183957e-04, 5.4633716326103060e-04,
             7.7587239944395701e-03, 1.0798998137971447e-03,
             5.2129196353054144e-02, 0., 2.9063589813058816e-03,
             8.2182776633549660e-05, 1.2913223910183957e-04, 0.,
             1.7463840482380552e-04, 1.5177456102038606e-03,
             5.2509978851759259e-05, 8.2182776633549660e-05,
             2.4691359220463567e-04, 9.2455628190255858e-05,
             5.2469139895689430e-04, 2.4691359220463567e-04, 0.,
             1.4790087696001077e-02, 1.4707961477355706e-03,
             4.1127914547173499e-04, 1.2364404559906041e-02,
             9.9999995529651692e-05, 9.4108015735059249e-03,
             6.3987082589362374e-04, 0., 0., 5.2509978851759259e-05,
             2.5131122463951700e-03, 4.4043089590944020e-03,
             1.2913223910183957e-04, 4.9295722921863976e-04, 0., 0.,
             2.1442922440928214e-02, 4.0691004585409821e-04, 0., 0.,
             1.2629587964979108e-03, 6.2562733157199785e-03,
             1.4496560704201512e-04, 0., 8.2182776633549660e-05, 0.,
             3.1887757953028353e-04, 5.2509978851759259e-05,
             5.2509978851759259e-05, 1.1337868903094142e-03,
             1.2913223910183957e-04, 1.9395877685776317e-03, 0.,
             3.0133861367991725e-03, 1.2913223910183957e-04,
             3.2909636883818533e-04, 8.0514219567431227e-04,
             7.2478181658255481e-02, 0., 0., 0., 0., 0., 0.,
             2.7777780675225863e-04, 0., 0., 8.3333345130086334e-04, 0.,
             0., 0., 0., 0., 0., 0., 0., 0., 0., 0.,
             1.6666669026017267e-03, 0., 0., 0., 2.7777780675225863e-04,
             2.7777780675225863e-04, 0., 0., 0., 0., 0.,
             1.6666669026017267e-03, 0., 5.0000004594524805e-03, 0., 0.,
             0., 0., 2.7777780675225863e-04, 0., 0., 0., 0., 0.,
             8.3333345130086334e-04, 0., 8.3333345130086334e-04, 0., 0.,
             0., 0., 0., 0., 0., 0., 0., 0., 0., 2.7777780675225863e-04,
             0., 0., 5.5555561350451726e-04, 0., 0.,
             2.7777780675225863e-04, 0., 5.5555561350451726e-04, 0., 0.,
             0., 0., 0., 0., 0., 0., 0., 0., 5.5555561350451726e-04,
             2.7777780675225863e-04, 0., 0., 0., 2.7777780675225863e-04,
             0., 0., 0., 0., 0., 0., 0., 0., 0., 0., 0., 0., 0., 0., 0.,
             1.9444446783098979e-03, 5.9511999369991908e-04, 0., 0.,
             1.9837333123330636e-04, 0., 0., 1.9837333123330636e-04, 0.,
             0., 5.9511999369991908e-04, 0., 0., 0., 0., 0.,
             1.9837333123330636e-04, 0., 1.9837333123330636e-04, 0.,
             1.9837333123330636e-04, 0., 7.9349332493322544e-04, 0.,
             1.9837333123330636e-04, 3.9674666246661272e-04, 0., 0.,
             1.9837333123330636e-04, 0., 0., 0., 0.,
             7.9349332493322544e-04, 0., 3.1739732997329018e-03, 0., 0.,
             3.9674666246661272e-04, 0., 1.9837333123330636e-04, 0., 0.,
             0., 0., 1.9837333123330636e-04, 0., 1.9837333123330636e-04,
             9.9186660369765534e-04, 0., 1.9837333123330636e-04, 0., 0.,
             0., 1.9837333123330636e-04, 0., 0., 0., 0., 0., 0., 0., 0.,
             3.9674666246661272e-04, 0., 1.9837333123330636e-04, 0., 0.,
             1.9837333123330636e-04, 0., 0., 0., 0., 0., 0., 0.,
             1.9837333123330636e-04, 0., 0., 3.9674666246661272e-04, 0.,
             0., 0., 0., 0., 0., 0., 0., 0., 0., 0., 0., 0., 0., 0., 0.,
             0., 0., 0., 0., 2.5788532535641062e-03,
             3.6254999755292450e-03, 1.3426557799468830e-03,
             1.8898960223239850e-03, 0., 1.2913223910183957e-04,
             3.9674666246661272e-04, 1.6436555326709932e-04, 0., 0.,
             2.4758784818955298e-02, 2.9349779236893889e-04,
             2.9349779236893889e-04, 1.2913223910183957e-04,
             1.2913223910183957e-04, 3.0483158509408970e-04, 0.,
             1.5241579254704485e-04, 3.2718331712096706e-03, 0.,
             1.4475902697295108e-03, 0., 1.3342749982753626e-02,
             1.7161188889682905e-03, 0., 8.5675423923827695e-03,
             4.1512205550145783e-03, 0., 0., 7.2569015004030294e-03, 0.,
             1.5241579254704485e-04, 0., 9.2308002773691215e-03, 0.,
             3.0466762968438116e-02, 0., 0., 2.5515353381062832e-03,
             1.9373248648548768e-03, 1.4866648404675597e-03,
             1.6346227372656258e-03, 3.5599858661528039e-04,
             8.6505190955932579e-04, 1.2913223910183957e-04, 0.,
             7.2532549314140342e-03, 0., 3.6695461872284348e-02, 0.,
             9.2262556403506502e-04, 1.5241579254704485e-04,
             1.2913223910183957e-04, 0., 3.2873110653419864e-04,
             5.2587890156845229e-04, 4.8114689908124349e-04,
             8.1632653973540484e-04, 0., 0., 0., 1.6436555326709932e-04,
             0., 6.0415942437425131e-03, 5.6111221573371204e-04, 0.,
             2.4718483482857037e-03, 0., 1.2770075115342887e-02,
             4.1068027075072400e-04, 0., 0., 0., 6.8870012411238139e-04,
             6.9687102289641778e-03, 1.2913223910183957e-04,
             2.5826447820367915e-04, 0., 3.0483158509408970e-04,
             1.3243074726532612e-02, 2.8154803164888442e-04, 0., 0.,
             4.3396382419592927e-04, 2.4676245360292573e-03,
             9.8069209300250416e-04, 0., 1.6436555326709932e-04, 0.,
             9.5663277185237261e-04, 0., 3.0483158509408970e-04, 0.,
             1.2913223910183957e-04, 1.3151036070726792e-03,
             8.6505190955932579e-04, 1.3052184882896070e-03,
             1.2913223910183957e-04, 0., 1.2913223910183957e-04,
             3.1566529282685420e-02, 0., 0., 0., 0., 0., 0., 0., 0., 0.,
             0., 0., 0., 0., 0., 0., 0., 0., 0., 0., 0., 0., 0., 0., 0.,
             0., 0., 0., 0., 0., 0., 0., 0., 0., 0., 0., 0., 0., 0., 0.,
             0., 0., 0., 0., 0., 0., 0., 0., 0., 0., 0., 0., 0., 0., 0.,
             0., 0., 0., 0., 0., 0., 0., 0., 0., 0., 0., 0., 0., 0., 0.,
             0., 0., 0., 0., 0., 0., 0., 0., 0., 0., 0., 0., 0., 0., 0.,
             0., 0., 0., 0., 0., 0., 0., 0., 0., 0., 0., 0., 0., 0., 0.,
             0., 1.0688000203280534e-03, 0., 2.8098673265759561e-04,
             2.2956842506993702e-04, 0., 0., 0., 0.,
             1.2345679610231784e-04, 2.4244987185565742e-03,
             2.2847675380583635e-04, 1.2345679610231784e-04,
             2.2956842506993702e-04, 0., 1.5241579254704485e-04, 0.,
             1.7596677495407709e-04, 3.7037039865498236e-04, 0.,
             5.3330833889992605e-04, 0., 3.9694869068257962e-03,
             1.2345679610231784e-04, 1.2345679610231784e-04,
             1.8378825995702501e-03, 2.9942357105639493e-04, 0., 0.,
             1.5241579254704485e-04, 0., 5.5795099257105896e-04, 0.,
             2.5665225745513977e-03, 0., 5.2694005471726826e-03, 0.,
             2.4691359220463567e-04, 3.2838256750112194e-04,
             2.2847675380583635e-04, 7.0416096984577022e-04, 0.,
             2.4691359220463567e-04, 0., 0., 2.9942357105639493e-04,
             6.1155264268691889e-04, 1.2345679610231784e-04,
             5.5488420880307823e-03, 0., 0., 0., 0., 0.,
             2.2956842506993702e-04, 0., 2.0492577139880411e-04, 0.,
             1.2345679610231784e-04, 0., 1.2345679610231784e-04,
             1.2345679610231784e-04, 0., 6.6728729304817158e-04, 0.,
             1.2345679610231784e-04, 7.5126293465983471e-04, 0.,
             1.3827682221745083e-03, 3.2838256750112194e-04, 0., 0.,
             5.2509978851759259e-05, 0., 3.5734156394584896e-04, 0.,
             5.1164682899163330e-04, 0., 3.0483158509408970e-04,
             1.7429103224649960e-03, 1.5241579254704485e-04, 0., 0.,
             1.0501995770351852e-04, 3.8198421761698187e-04,
             5.2509978851759259e-05, 2.2956842506993702e-04, 0., 0., 0.,
             5.2509978851759259e-05, 3.5734156394584896e-04, 0., 0.,
             1.2345679610231784e-04, 0., 0., 0., 1.2345679610231784e-04,
             2.4691359220463567e-04, 7.8232510418932005e-03,
             1.4515893823402459e-04, 0., 0., 0., 0., 0., 0., 0., 0.,
             2.9031787646804919e-04, 0., 0., 0., 0., 0.,
             1.4515893823402459e-04, 0., 1.4515893823402459e-04, 0., 0.,
             0., 5.8063575293609837e-04, 0., 0., 1.4515893823402459e-04,
             0., 0., 0., 0., 0., 0., 1.4515893823402459e-04,
             2.9031787646804919e-04, 0., 3.0483376131484885e-03, 0., 0.,
             0., 0., 1.4515893823402459e-04, 0., 0., 0., 0., 0., 0., 0.,
             1.5967484103402985e-03, 0., 0., 0., 0., 0., 0., 0., 0., 0.,
             1.4515893823402459e-04, 0., 0., 0., 1.4515893823402459e-04,
             0., 0., 0., 0., 0., 1.3064304441062213e-03, 0., 0., 0., 0.,
             0., 0., 0., 0., 0., 0., 1.1612715058721967e-03, 0., 0., 0.,
             0., 0., 0., 0., 1.4515893823402459e-04, 0., 0., 0., 0., 0.,
             0., 0., 0., 0., 2.9031787646804919e-04, 0., 0.,
             2.1773841632763968e-03, 3.9578781462752261e-02,
             2.5290203431560495e-03, 2.3762953698573504e-02,
             1.4821986001430365e-03, 0., 1.9837333123330636e-04,
             6.6845078533230755e-03, 0., 3.7037039865498236e-04,
             1.0566684738687658e-01, 8.9640509539763488e-03,
             2.0140260029661745e-03, 6.8870527520981106e-04, 0.,
             1.5241579254704485e-03, 4.2088112479674034e-03,
             6.6576193626613524e-03, 3.6525344076355402e-02,
             1.8573738851965782e-03, 1.2127469735039090e-02, 0.,
             2.3872696401506302e-01, 8.9340026793046680e-03,
             1.1638637235882078e-03, 4.3665777183998583e-02,
             2.4513103023694967e-02, 1.6666669026017267e-03,
             7.9349332493322544e-04, 9.2308002773691215e-03, 0.,
             2.5665225745513977e-03, 2.9031787646804919e-04,
             2.3558593072292466e-01, 0., 4.8047581746008927e-01, 0.,
             9.0510635057706405e-04, 3.4873388373493339e-02,
             9.9973082616733253e-03, 4.7789286154202318e-02,
             7.8199477111813576e-03, 1.2611049371923444e-03,
             1.7301038191186516e-03, 0., 5.3005947114312738e-03,
             2.2723191477587588e-02, 2.4133430939901369e-03,
             3.2555000558231645e-01, 0., 1.1902399873998382e-03,
             7.3084488723092070e-03, 0., 0., 5.3961534940287744e-03,
             2.0733734336787907e-03, 4.7947581093089886e-03,
             1.6436555326709932e-04, 6.6068827512303155e-04,
             4.6227813199625420e-04, 2.0370373012567090e-03,
             2.7027312781759856e-03, 2.9031787646804919e-04,
             6.1333928872818896e-02, 5.1281424817211383e-03,
             1.8003818460969098e-03, 4.5837373675739618e-02,
             3.9999998211860677e-04, 7.8816271958920492e-02,
             4.7863425347724657e-03, 0., 0., 1.0501995230454697e-03,
             8.1865362957587867e-03, 5.1942689581735688e-02, 0.,
             3.7854689337840234e-03, 0., 7.5182403188078367e-03,
             9.2768470596827760e-02, 5.6910960514852393e-03, 0., 0.,
             6.9777044075963746e-03, 1.3351405636312184e-02,
             3.1561332593529161e-03, 6.8870527520981106e-04,
             2.4061260500208440e-03, 0., 6.3775515906056707e-04,
             1.0501995230454697e-03, 1.9646942783277388e-03,
             5.1632844075599343e-03, 0., 1.2748349360261792e-03,
             1.7301038191186516e-03, 2.2151935794912685e-02,
             5.8063575293609837e-04, 4.3422638395279227e-03,
             5.0080564768062519e-03, 4.4294823248632392e-01, 0., 0., 0.,
             0., 0., 0., 0., 0., 0., 0., 0., 0., 0., 0., 0., 0., 0., 0.,
             0., 0., 0., 0., 0., 0., 0., 0., 0., 0., 0., 0., 0., 0., 0.,
             0., 0., 0., 0., 0., 0., 0., 0., 0., 0., 0., 0., 0., 0., 0.,
             0., 0., 0., 0., 0., 0., 0., 0., 0., 0., 0., 0., 0., 0., 0.,
             0., 0., 0., 0., 0., 0., 0., 0., 0., 0., 0., 0., 0., 0., 0.,
             0., 0., 0., 0., 0., 0., 0., 0., 0., 0., 0., 0., 0., 0., 0.,
             0., 0., 0., 0., 0., 0., 0., 1.2593780520811551e-01,
             1.8710949754379581e-02, 5.5712076641899352e-02,
             5.7248064292131813e-03, 7.7479343461103745e-04,
             9.9186660369765534e-04, 1.6630973043204534e-02, 0.,
             1.3580247260814096e-03, 3.5489119688109072e-01,
             3.1130906851776691e-02, 3.7764737650036392e-03,
             2.6113408351705336e-03, 7.7479343461103745e-04,
             1.9814053031115830e-03, 1.1847311220217843e-02,
             1.2366489900866508e-02, 1.3905430794553331e-01,
             4.2206249374509563e-03, 3.3680310308075730e-02, 0.,
             7.5006791363691627e-01, 4.2263716388470679e-02,
             4.5319980258143114e-03, 1.2547326643435203e-01,
             5.8925347195487220e-02, 5.0000004594524805e-03,
             3.1739732997329018e-03, 3.0466762968438116e-02, 0.,
             5.2694005471726826e-03, 3.0483376131484885e-03,
             4.8047581746008927e-01, 0., 1.7146540602679952e+00, 0.,
             6.9534382695676834e-03, 1.0545887244751606e-01,
             1.6786669179447922e-02, 1.2400419767590756e-01,
             5.3083457224412850e-02, 5.4273204142593658e-03,
             2.5951557834616584e-03, 7.7479343461103745e-04,
             1.1277013650383208e-02, 1.2741132367492014e-01,
             9.9464084281524548e-03, 1.2065171688951786e+00, 0.,
             9.5946093167392499e-03, 1.8133903039760691e-02,
             7.7479343461103745e-04, 0., 1.3459776990312155e-02,
             3.0166600755615960e-03, 5.3621396291541612e-03,
             6.2895652737711312e-03, 4.4063623392298981e-03,
             9.2455626399250840e-04, 6.3580251855338901e-03,
             5.5269330061619090e-03, 3.0483376131484885e-03,
             1.6631206695319384e-01, 1.2576045629142333e-02,
             1.8192096523034620e-02, 1.1353164966395457e-01,
             1.9999998360872295e-03, 2.1883030146682486e-01,
             1.1686961736662820e-02, 0., 0., 1.3127494577965526e-03,
             1.4002268122318754e-02, 2.0087506409730058e-01,
             7.7479343461103745e-04, 1.5946793081362615e-02, 0.,
             2.8558902292734306e-02, 2.8775159969536379e-01,
             1.2482176151424801e-02, 0., 0., 1.2279319682795137e-02,
             5.6933881081898480e-02, 1.6520455212960757e-02,
             1.8365474005594962e-03, 7.4217817716860680e-03, 0.,
             6.3775515906056707e-04, 1.3127494577965526e-03,
             2.8369073832670011e-03, 1.5373719173801398e-02,
             7.7479343461103745e-04, 1.2583194022619516e-02,
             2.5951557834616584e-03, 5.0018870862680365e-02,
             6.8714686609080144e-03, 1.3570936638475511e-02,
             1.5177524894216209e-02, 1.4203751657524810e+00, 0., 0., 0.,
             0., 0., 0., 0., 0., 0., 0., 0., 0., 0., 0., 0., 0., 0., 0.,
             0., 0., 0., 0., 0., 0., 0., 0., 0., 0., 0., 0., 0., 0., 0.,
             0., 0., 0., 0., 0., 0., 0., 0., 0., 0., 0., 0., 0., 0., 0.,
             0., 0., 0., 0., 0., 0., 0., 0., 0., 0., 0., 0., 0., 0., 0.,
             0., 0., 0., 0., 0., 0., 0., 0., 0., 0., 0., 0., 0., 0., 0.,
             0., 0., 0., 0., 0., 0., 0., 0., 0., 0., 0., 0., 0., 0., 0.,
             0., 0., 0., 0., 0., 0., 0., 8.2182776633549660e-05,
             4.1091388316774830e-05, 2.4691359220463567e-04, 0., 0., 0.,
             4.1091388316774830e-05, 0., 2.4691359220463567e-04,
             1.1464739876763707e-03, 3.2909636883818533e-04,
             2.4691359220463567e-04, 0., 0., 0., 0.,
             2.4691359220463567e-04, 9.8488142230996473e-04, 0.,
             2.4691359220463567e-04, 0., 3.2315573579367041e-03,
             2.4691359220463567e-04, 2.4691359220463567e-04,
             2.8523201331677483e-04, 5.7600996104282100e-04, 0., 0., 0.,
             0., 2.4691359220463567e-04, 0., 9.0510635057706405e-04, 0.,
             6.9534382695676834e-03, 0., 7.7905919772604617e-04,
             2.8800498052141050e-04, 2.8800498052141050e-04,
             5.3491857272604617e-04, 0., 5.3491857272604617e-04, 0., 0.,
             4.9382718440927134e-04, 2.4414062500000000e-04,
             2.4691359220463567e-04, 4.6677135096111697e-03, 0.,
             2.4414062500000000e-04, 2.8523201331677483e-04, 0., 0.,
             2.8523201331677483e-04, 0., 0., 4.1091388316774830e-05,
             2.4691359220463567e-04, 0., 2.4691359220463567e-04,
             2.4691359220463567e-04, 0., 7.7351326331677483e-04,
             4.1091388316774830e-05, 3.2909636883818533e-04,
             1.0698371454520923e-03, 0., 2.4691359220463567e-04,
             2.8800498052141050e-04, 0., 0., 0., 4.1091388316774830e-05,
             0., 0., 2.8523201331677483e-04, 0., 0.,
             2.2905402704520923e-03, 0., 0., 0., 0.,
             4.8828125000000000e-04, 0., 0., 4.1091388316774830e-05, 0.,
             0., 0., 0., 2.4414062500000000e-04, 0.,
             2.4691359220463567e-04, 0., 0., 0., 2.8800498052141050e-04,
             5.3491857272604617e-04, 1.0823400990209647e-02,
             1.3910665564256099e-02, 2.3603728537980881e-03,
             4.8223673872509311e-03, 3.9674666246661272e-04,
             1.2913223910183957e-04, 1.9837333123330636e-04,
             4.3783805078338755e-04, 0., 1.2345679610231784e-04,
             2.0796928297854459e-02, 4.7520331780786258e-03,
             2.5258903520415741e-04, 1.2913223910183957e-04,
             1.2913223910183957e-04, 3.0483158509408970e-04,
             1.0217466810930644e-03, 1.1964381747968213e-03,
             7.2174696315359249e-03, 6.1557403194900662e-04,
             2.1734283894661050e-03, 0., 6.0827967653970000e-02,
             4.7141379167691339e-03, 5.2020345856893056e-04,
             1.1394805363625752e-02, 4.3064308965541130e-03, 0.,
             3.9674666246661272e-04, 2.5515353381062832e-03, 0.,
             3.2838256750112194e-04, 0., 3.4873388373493339e-02, 0.,
             1.0545887244751606e-01, 0., 2.8800498052141050e-04,
             1.5280855729950589e-02, 7.0495930354371795e-04,
             1.5593209128197574e-02, 3.1850156906135657e-03,
             2.8800498052141050e-04, 8.6505190955932579e-04,
             1.2913223910183957e-04, 1.1488637313365278e-03,
             2.2689959748577434e-03, 9.3669656936518509e-04,
             6.8238345234667888e-02, 0., 9.2262556403506502e-04,
             1.7303375474436655e-03, 1.2913223910183957e-04, 0.,
             5.3029367897364341e-04, 3.2750557033514593e-04,
             2.0492577139880411e-04, 4.1091388316774830e-05,
             1.2345679610231784e-04, 9.2455628190255858e-05,
             1.2345679610231784e-04, 5.8259364624219188e-04, 0.,
             1.3309149244481212e-02, 1.2800473838532613e-03,
             2.6972503181955806e-03, 5.4178903835024302e-03,
             1.9999999105930338e-04, 1.4151610847610305e-02,
             1.0804319318350960e-03, 0., 0., 5.2509978851759259e-05,
             7.5236289683693080e-04, 6.6581286864342074e-03,
             1.2913223910183957e-04, 9.4861249889812934e-04, 0.,
             3.9729263485431023e-03, 1.5863912210025571e-02,
             1.4706086648824390e-03, 0., 0., 8.8191931513029870e-04,
             4.6011973075694408e-03, 1.4496560704201512e-04, 0.,
             6.5666542026578145e-04, 0., 0., 5.2509978851759259e-05,
             3.5734156394584896e-04, 0., 1.2913223910183957e-04,
             5.2183011839492758e-04, 8.6505190955932579e-04,
             5.4530866543815379e-03, 1.2913223910183957e-04,
             1.3536088176526473e-03, 6.1713721068255346e-04,
             8.3995315405963042e-02, 2.8360980839871679e-03,
             1.3354701650703069e-04, 1.5934264537153390e-03, 0., 0., 0.,
             2.0545694158387415e-04, 0., 1.2345679610231784e-04,
             9.7117769361764091e-03, 9.2298057464085476e-04,
             2.8782234936941715e-04, 0., 0., 0., 0.,
             2.2847675380583635e-04, 2.0942183849656524e-03, 0.,
             6.6222781804355351e-04, 0., 1.0602732778793872e-02,
             1.2345679610231784e-04, 1.2345679610231784e-04,
             1.6287599661182642e-03, 1.8742561339547960e-03, 0., 0.,
             1.9373248648548768e-03, 0., 2.2847675380583635e-04, 0.,
             9.9973082616733253e-03, 0., 1.6786669179447922e-02, 0.,
             2.8800498052141050e-04, 7.0495930354371795e-04,
             2.7345489524064756e-03, 1.2306972284404675e-03, 0.,
             2.8800498052141050e-04, 0., 0., 3.5193354990815419e-04,
             4.3016393852886104e-03, 1.2345679610231784e-04,
             2.4189395265376272e-02, 0., 0., 4.1091388316774830e-05, 0.,
             0., 4.6227812304122933e-04, 6.2500001862645163e-04,
             4.3375106423771716e-04, 8.5741792805217967e-04,
             1.2345679610231784e-04, 9.2455628190255858e-05,
             1.2345679610231784e-04, 2.8782234936941715e-04, 0.,
             3.6345555973053131e-03, 2.0545694158387415e-04,
             2.0563957273586750e-04, 2.2360432108668653e-03, 0.,
             5.4638014700640431e-03, 2.6956814212261118e-04, 0., 0.,
             1.0501995770351852e-04, 5.4839247481472506e-04,
             2.1841016751259421e-03, 0., 1.4611134602029335e-04, 0., 0.,
             5.3346177900864614e-03, 0., 0., 0., 5.5297544863788795e-04,
             4.1133320772053939e-04, 1.1781676788962785e-03, 0.,
             2.0545694158387415e-04, 0., 3.1887757953028353e-04,
             1.0501995770351852e-04, 1.0501995770351852e-04, 0., 0.,
             9.3978333583772267e-04, 0., 6.8587106646170182e-04, 0.,
             1.6454818441909267e-04, 2.8800498052141050e-04,
             1.9747447478858517e-02, 1.4987567582618658e-02,
             1.6528947526292938e-03, 6.2052161633597731e-03,
             1.9837333123330636e-04, 0., 0., 6.8160807956943914e-04, 0.,
             2.4691359220463567e-04, 2.2049720805727115e-02,
             5.6077757140134098e-03, 4.1127914547173499e-04, 0., 0.,
             4.5724737764113454e-04, 1.5935323067202342e-03,
             1.1149691995003350e-03, 8.6241660135323410e-03, 0.,
             2.9180509390739663e-03, 0., 6.6010041194359256e-02,
             3.9149691488363867e-03, 4.4528692343794203e-04,
             1.1987331355059411e-02, 4.0368428080222530e-03,
             2.7777780675225863e-04, 1.9837333123330636e-04,
             1.4866648404675597e-03, 0., 7.0416096984577022e-04,
             1.4515893823402459e-04, 4.7789286154202318e-02, 0.,
             1.2400419767590756e-01, 0., 5.3491857272604617e-04,
             1.5593209128197574e-02, 1.2306972284404675e-03,
             2.4325042433353667e-02, 5.8962455084642096e-03,
             5.3491857272604617e-04, 8.6505190955932579e-04, 0.,
             1.5975875112696179e-03, 1.9238693357419992e-03,
             8.6178003423419657e-04, 7.8475619964072582e-02, 0.,
             1.9837333123330636e-04, 2.4324901985930091e-03, 0., 0.,
             6.6065145427453569e-04, 0., 7.8597848417533318e-04,
             4.1091388316774830e-05, 3.9207253043866026e-04,
             9.2455628190255858e-05, 5.2469139895689430e-04,
             1.0999844206815461e-03, 1.4515893823402459e-04,
             1.5460693794048672e-02, 1.2460396058870543e-03,
             2.0067597511155854e-03, 1.0724053273173783e-02,
             1.9999999105930338e-04, 1.7450690823879018e-02,
             1.2780612261324039e-03, 0., 0., 0., 1.0913279991048793e-03,
             8.7637793259630059e-03, 0., 4.3946471060938457e-04, 0.,
             4.5825895187312816e-03, 1.8968704329108153e-02,
             3.1131464508605024e-03, 0., 0., 6.8587106646170182e-04,
             7.6122324611741033e-03, 1.6418627533426201e-03, 0.,
             3.5061587981789874e-04, 0., 0., 0., 9.1449475528226909e-04,
             0., 0., 4.4691358326393905e-04, 8.6505190955932579e-04,
             7.3620516702381476e-03, 2.9031787646804919e-04,
             3.3987047180093211e-03, 7.7497624886351891e-04,
             9.5705928470021032e-02, 3.5870066417177660e-04,
             1.1902399873998382e-03, 7.1199717323056078e-04, 0.,
             1.2913223910183957e-04, 3.9674666246661272e-04, 0., 0., 0.,
             1.6268831757079980e-02, 1.6882690586943333e-03,
             1.2913223910183957e-04, 1.2913223910183957e-04,
             1.2913223910183957e-04, 0., 0., 0., 2.1230617194557821e-03,
             0., 3.2760614939949528e-03, 0., 3.3271667862799781e-02,
             1.7116118871086897e-02, 0., 1.0522537209530114e-02,
             4.0063589507585012e-03, 0., 0., 1.6346227372656258e-03, 0.,
             0., 0., 7.8199477111813576e-03, 0., 5.3083457224412850e-02,
             0., 0., 3.1850156906135657e-03, 0., 5.8962455084642096e-03,
             2.2313767775502105e-02, 7.1199717323056078e-04, 0.,
             1.2913223910183957e-04, 0., 3.1279892206276805e-03, 0.,
             3.3032843014525193e-02, 0., 9.2262556403506502e-04,
             2.2956842506993702e-04, 1.2913223910183957e-04, 0., 0.,
             5.2587890156845229e-04, 0., 0., 0., 0., 0.,
             2.2956842506993702e-04, 0., 4.2265773257295913e-03,
             3.9674666246661272e-04, 0., 1.0842608001990189e-02,
             1.0999999694526197e-03, 8.1973479669836258e-03,
             2.5826447820367915e-04, 0., 0., 0., 1.8119971426831805e-03,
             8.8630692816205614e-03, 1.2913223910183957e-04,
             1.3582644476562988e-03, 0., 0., 9.9628580054114679e-03,
             1.2913223910183957e-04, 0., 0., 1.2913223910183957e-04,
             6.9678632294516152e-03, 2.7700831437705298e-03, 0., 0., 0.,
             0., 0., 0., 0., 1.2913223910183957e-04,
             1.4967466319192324e-03, 0., 2.0415655677531175e-03,
             1.2913223910183957e-04, 1.3850415718852649e-03,
             1.2291322085544593e-03, 3.6846299540607808e-02,
             8.2182776633549660e-05, 4.1091388316774830e-05,
             6.0291217881991606e-04, 0., 0., 0., 4.1091388316774830e-05,
             0., 2.4691359220463567e-04, 1.3701899109069314e-03,
             3.2909636883818533e-04, 2.4691359220463567e-04, 0., 0., 0.,
             0., 2.4691359220463567e-04, 7.4074079730996473e-04, 0.,
             9.5891076543519645e-04, 0., 3.3025659160131060e-03,
             2.4691359220463567e-04, 2.4691359220463567e-04,
             1.8210843213931768e-03, 5.7600996104282100e-04, 0., 0.,
             3.5599858661528039e-04, 0., 2.4691359220463567e-04, 0.,
             1.2611049371923444e-03, 0., 5.4273204142593658e-03, 0.,
             5.3491857272604617e-04, 2.8800498052141050e-04,
             2.8800498052141050e-04, 5.3491857272604617e-04,
             7.1199717323056078e-04, 8.9091715934132656e-04, 0., 0.,
             4.9382718440927134e-04, 3.5599858661528039e-04,
             2.4691359220463567e-04, 5.9185757891486931e-03, 0., 0.,
             4.1091388316774830e-05, 0., 0., 4.1091388316774830e-05, 0.,
             0., 4.1091388316774830e-05, 2.4691359220463567e-04, 0.,
             2.4691359220463567e-04, 2.4691359220463567e-04, 0.,
             4.1091388316774830e-05, 4.1091388316774830e-05,
             3.2909636883818533e-04, 1.4258357320673727e-03, 0.,
             1.6709079386657572e-03, 2.8800498052141050e-04, 0., 0., 0.,
             3.9708997493205522e-04, 1.4239943464611216e-03, 0.,
             4.1091388316774830e-05, 0., 0., 1.4258357320673727e-03, 0.,
             0., 0., 0., 0., 0., 0., 4.1091388316774830e-05, 0., 0., 0.,
             0., 0., 0., 2.4691359220463567e-04, 0.,
             3.5599858661528039e-04, 0., 2.8800498052141050e-04,
             5.3491857272604617e-04, 9.4295657982860492e-03,
             8.6505190955932579e-04, 0., 0., 0., 0., 0., 0., 0., 0.,
             8.6505190955932579e-04, 0., 0., 0., 0., 0., 0., 0.,
             8.6505190955932579e-04, 0., 0., 0., 2.5951557834616584e-03,
             0., 0., 1.7301038191186516e-03, 0., 0., 0.,
             8.6505190955932579e-04, 0., 0., 0., 1.7301038191186516e-03,
             0., 2.5951557834616584e-03, 0., 0., 8.6505190955932579e-04,
             0., 8.6505190955932579e-04, 0., 0., 8.6505190955932579e-04,
             0., 0., 0., 0., 4.3252597121476721e-03, 0., 0., 0., 0., 0.,
             0., 0., 0., 0., 0., 0., 0., 0., 0., 8.6505190955932579e-04,
             0., 0., 0., 0., 1.7301038191186516e-03, 0., 0., 0., 0., 0.,
             8.6505190955932579e-04, 0., 0., 0., 0.,
             8.6505190955932579e-04, 0., 0., 0., 0., 0., 0., 0., 0., 0.,
             0., 0., 0., 0., 0., 0., 8.6505190955932579e-04,
             8.6505190955932579e-04, 0., 0., 0., 4.3252597121476721e-03,
             1.2913223910183957e-04, 0., 0., 0., 1.2913223910183957e-04,
             0., 0., 0., 0., 1.2913223910183957e-04,
             1.2913223910183957e-04, 1.2913223910183957e-04,
             1.2913223910183957e-04, 1.2913223910183957e-04, 0., 0., 0.,
             0., 0., 0., 0., 5.1652895640735830e-04,
             1.2913223910183957e-04, 0., 2.5826447820367915e-04,
             1.2913223910183957e-04, 0., 0., 1.2913223910183957e-04, 0.,
             0., 0., 0., 0., 7.7479343461103745e-04, 0., 0.,
             1.2913223910183957e-04, 0., 0., 1.2913223910183957e-04, 0.,
             0., 1.2913223910183957e-04, 0., 0., 0.,
             7.7479343461103745e-04, 0., 1.2913223910183957e-04, 0.,
             1.2913223910183957e-04, 0., 0., 1.2913223910183957e-04, 0.,
             0., 0., 0., 0., 0., 0., 5.1652895640735830e-04, 0., 0.,
             2.5826447820367915e-04, 0., 7.7479343461103745e-04,
             2.5826447820367915e-04, 0., 0., 0., 0., 0.,
             1.2913223910183957e-04, 2.5826447820367915e-04, 0., 0.,
             1.4204545877873898e-03, 1.2913223910183957e-04, 0., 0.,
             1.2913223910183957e-04, 0., 0., 0., 0., 0., 0., 0., 0., 0.,
             1.2913223910183957e-04, 0., 0., 0., 1.2913223910183957e-04,
             0., 1.2913223910183957e-04, 2.7117770634714766e-03,
             1.0478134915134392e-03, 0., 4.0444352875991345e-04,
             1.9837333123330636e-04, 0., 0., 1.9837333123330636e-04, 0.,
             2.4691359220463567e-04, 1.5090270089232645e-03,
             3.5193354990815419e-04, 2.4691359220463567e-04, 0., 0., 0.,
             1.9837333123330636e-04, 2.9942357105639493e-04,
             1.3918076263567912e-03, 0., 5.5030688114146055e-04, 0.,
             9.2428037144250408e-03, 2.4691359220463567e-04,
             4.4528692343794203e-04, 5.5427659902189050e-04,
             5.4633716326103060e-04, 0., 1.9837333123330636e-04, 0., 0.,
             2.9942357105639493e-04, 0., 5.3005947114312738e-03, 0.,
             1.1277013650383208e-02, 0., 4.9382718440927134e-04,
             1.1488637313365278e-03, 3.5193354990815419e-04,
             1.5975875112696179e-03, 0., 4.9382718440927134e-04, 0., 0.,
             1.1974039923078571e-03, 0., 4.4528692343794203e-04,
             4.4132984617270207e-03, 0., 1.9837333123330636e-04, 0., 0.,
             0., 1.9837333123330636e-04, 0., 5.2509978851759259e-05, 0.,
             2.4691359220463567e-04, 0., 2.4691359220463567e-04,
             2.4691359220463567e-04, 0., 1.5121735735006900e-03, 0.,
             4.4528692343794203e-04, 1.0926743265220612e-03, 0.,
             1.3180602520655362e-03, 2.9942357105639493e-04, 0., 0.,
             5.2509978851759259e-05, 0., 5.2509978851759259e-05, 0.,
             2.5088331008506562e-04, 0., 0., 1.9421144868021940e-03, 0.,
             0., 0., 1.0501995770351852e-04, 0., 5.2509978851759259e-05,
             0., 0., 0., 0., 5.2509978851759259e-05,
             5.2509978851759259e-05, 0., 0., 2.4691359220463567e-04, 0.,
             4.5269349781352011e-04, 0., 2.4691359220463567e-04,
             4.9382718440927134e-04, 1.0074415017566105e-02,
             1.3639938249597420e-02, 1.4686959862050273e-03,
             2.8755244726373468e-03, 4.5913685013987404e-04, 0.,
             3.9674666246661272e-04, 9.7060926857502235e-04, 0., 0.,
             4.8633043421337938e-02, 0., 0., 4.5913685013987404e-04, 0.,
             1.5241579254704485e-04, 0., 0., 4.6607965320318995e-03, 0.,
             1.8722435528150646e-03, 0., 4.7908281667231767e-02,
             1.7242624671406099e-03, 0., 9.9451712408975372e-03,
             7.7587239944395701e-03, 8.3333345130086334e-04, 0.,
             7.2532549314140342e-03, 0., 6.1155264268691889e-04, 0.,
             2.2723191477587588e-02, 0., 1.2741132367492014e-01, 0.,
             2.4414062500000000e-04, 2.2689959748577434e-03,
             4.3016393852886104e-03, 1.9238693357419992e-03,
             3.1279892206276805e-03, 3.5599858661528039e-04, 0., 0., 0.,
             3.8913389470607178e-02, 0., 1.4994797830469800e-01, 0.,
             1.0376339499332254e-03, 2.4414062500000000e-04, 0., 0.,
             7.9573310333012990e-04, 1.0217466810930644e-03,
             1.5241579254704485e-04, 3.2653061589416194e-03, 0.,
             9.2455628190255858e-05, 8.3333345130086334e-04, 0., 0.,
             1.4464142184525935e-02, 3.9674666246661272e-04, 0.,
             9.0120799592938033e-03, 0., 1.9998159767010831e-02,
             1.5241579254704485e-04, 0., 0., 0., 1.0912280159999892e-03,
             2.0835656838428997e-02, 0., 1.1624143252797481e-03, 0.,
             3.0483158509408970e-04, 1.3364682136606080e-02,
             9.8574924384790819e-04, 0., 0., 7.3046022529494117e-04,
             4.2439094019479070e-03, 3.3577617871318752e-03,
             4.5913685013987404e-04, 0., 0., 3.1887757953028353e-04, 0.,
             3.0483158509408970e-04, 2.1960756420399720e-03, 0.,
             3.8017210731468177e-03, 0., 2.7549814797786683e-03, 0., 0.,
             1.3850415718852649e-03, 9.4209487122219687e-02,
             1.0116131044961736e-03, 0., 1.3729361665042470e-03,
             1.9837333123330636e-04, 0., 0., 1.9837333123330636e-04, 0.,
             1.2345679610231784e-04, 2.9244991018726619e-03,
             1.2345679610231784e-04, 1.2345679610231784e-04, 0., 0., 0.,
             1.9837333123330636e-04, 1.2345679610231784e-04,
             5.6874372988828872e-04, 0., 3.2183012733562420e-04, 0.,
             1.9507272330394447e-03, 1.2345679610231784e-04,
             3.2183012733562420e-04, 3.9674666246661272e-04,
             1.0798998137971447e-03, 0., 1.9837333123330636e-04, 0., 0.,
             1.2345679610231784e-04, 0., 2.4133430939901369e-03, 0.,
             9.9464084281524548e-03, 0., 2.4691359220463567e-04,
             9.3669656936518509e-04, 1.2345679610231784e-04,
             8.6178003423419657e-04, 0., 2.4691359220463567e-04, 0., 0.,
             4.4528692343794203e-04, 0., 7.3832323813187873e-04,
             3.9385297027300162e-03, 0., 1.9837333123330636e-04, 0., 0.,
             0., 1.9837333123330636e-04, 0., 0., 0.,
             1.2345679610231784e-04, 0., 1.2345679610231784e-04,
             1.2345679610231784e-04, 0., 3.9674666246661272e-04, 0.,
             3.2183012733562420e-04, 9.1032029520552588e-04, 0.,
             7.3832323813187873e-04, 1.2345679610231784e-04, 0., 0., 0.,
             0., 4.1649311079625453e-04, 0., 1.9837333123330636e-04, 0.,
             0., 1.3070669576721386e-03, 0., 0., 0., 0.,
             4.1649311079625453e-04, 0., 0., 0., 0., 0., 0., 0., 0., 0.,
             1.2345679610231784e-04, 0., 0., 0., 1.2345679610231784e-04,
             2.4691359220463567e-04, 8.1330204490798058e-03,
             1.5260177719615689e-01, 1.5333227673996960e-02,
             5.0899525405901862e-02, 4.4865070886427327e-03,
             7.7479343461103745e-04, 3.9674666246661272e-04,
             2.0407958218139149e-02, 0., 8.6419758306425370e-04,
             4.0810812824568587e-01, 2.7372374444210840e-02,
             2.9539154438120857e-03, 3.3000461103803447e-03,
             7.7479343461103745e-04, 3.2007316434879418e-03,
             3.8386150512908571e-03, 8.0169479538300600e-03,
             1.5657358357717038e-01, 5.8799088408956202e-03,
             3.3637813184171007e-02, 0., 6.5351111277631646e-01,
             2.4617198520301246e-02, 1.8560641867619090e-03,
             1.0854924741768687e-01, 5.2129196353054144e-02,
             8.3333345130086334e-04, 9.9186660369765534e-04,
             3.6695461872284348e-02, 0., 5.5488420880307823e-03,
             1.5967484103402985e-03, 3.2555000558231645e-01, 0.,
             1.2065171688951786e+00, 0., 4.6677135096111697e-03,
             6.8238345234667888e-02, 2.4189395265376272e-02,
             7.8475619964072582e-02, 3.3032843014525193e-02,
             5.9185757891486931e-03, 4.3252597121476721e-03,
             7.7479343461103745e-04, 4.4132984617270207e-03,
             1.4994797830469800e-01, 3.9385297027300162e-03,
             1.7372889502935063e+00, 0., 4.5132783632419182e-03,
             1.3739870882327601e-02, 7.7479343461103745e-04, 0.,
             1.1120310241678692e-02, 6.1715402460892632e-03,
             4.7892406814708105e-03, 7.5168056613659009e-03,
             2.4609459934045522e-03, 2.0340237664554783e-03,
             1.6975310343651170e-03, 4.0156694097605444e-03,
             1.5967484103402985e-03, 1.3359746080148546e-01,
             6.8601950892987901e-03, 9.4974692340379294e-03,
             1.1393624277803722e-01, 1.0999999694526197e-03,
             1.9831551106576228e-01, 1.4088192495432306e-02, 0., 0.,
             7.8764969627381776e-04, 1.3792003833054484e-02,
             2.2814602239009452e-01, 7.7479343461103745e-04,
             1.2418926833667444e-02, 0., 1.6538592581910289e-02,
             2.6139922204707289e-01, 7.7361115517695228e-03, 0., 0.,
             2.1213969002298272e-02, 4.4343695357073845e-02,
             1.2052251778634594e-02, 2.5252526757693072e-03,
             5.1290142438577685e-03, 0., 3.8265310874094904e-03,
             7.8764969627381776e-04, 3.5311339621206250e-03,
             4.2206987806188284e-03, 7.7479343461103745e-04,
             1.1271811521934440e-02, 4.3252597121476721e-03,
             4.8633522911002605e-02, 3.9682902552916344e-03,
             1.0559833503774353e-02, 5.9112855536738729e-03,
             1.3620576563511020e+00, 0., 0., 0., 0., 0., 0., 0., 0., 0.,
             0., 0., 0., 0., 0., 0., 0., 0., 0., 0., 0., 0., 0., 0., 0.,
             0., 0., 0., 0., 0., 0., 0., 0., 0., 0., 0., 0., 0., 0., 0.,
             0., 0., 0., 0., 0., 0., 0., 0., 0., 0., 0., 0., 0., 0., 0.,
             0., 0., 0., 0., 0., 0., 0., 0., 0., 0., 0., 0., 0., 0., 0.,
             0., 0., 0., 0., 0., 0., 0., 0., 0., 0., 0., 0., 0., 0., 0.,
             0., 0., 0., 0., 0., 0., 0., 0., 0., 0., 0., 0., 0., 0., 0.,
             0., 7.2425223280175866e-04, 1.1902399873998382e-03, 0.,
             1.9837333123330636e-04, 1.2913223910183957e-04,
             3.9674666246661272e-04, 1.9837333123330636e-04, 0., 0.,
             2.4027734702015968e-03, 1.2913223910183957e-04,
             1.2913223910183957e-04, 1.2913223910183957e-04,
             1.2913223910183957e-04, 0., 1.9837333123330636e-04, 0.,
             1.2360072811665318e-03, 0., 1.9837333123330636e-04, 0.,
             5.3994866311402601e-03, 1.7161188889682905e-03,
             1.9837333123330636e-04, 1.2958984281369046e-03,
             2.9063589813058816e-03, 0., 1.9837333123330636e-04,
             9.2262556403506502e-04, 0., 0., 0., 1.1902399873998382e-03,
             0., 9.5946093167392499e-03, 0., 2.4414062500000000e-04,
             9.2262556403506502e-04, 0., 1.9837333123330636e-04,
             9.2262556403506502e-04, 0., 0., 1.2913223910183957e-04,
             1.9837333123330636e-04, 1.0376339499332254e-03,
             1.9837333123330636e-04, 4.5132783632419182e-03, 0.,
             1.3651395202683714e-03, 2.4414062500000000e-04,
             1.2913223910183957e-04, 0., 4.4251395623330636e-04,
             5.2587890156845229e-04, 0., 0., 0., 0., 0., 0., 0.,
             4.0261774686736473e-03, 3.9674666246661272e-04,
             1.9837333123330636e-04, 1.4485044656035173e-03, 0.,
             9.7316676584434381e-04, 2.5826447820367915e-04, 0., 0., 0.,
             0., 0., 1.2913223910183957e-04, 7.0077843443698551e-04, 0.,
             0., 4.2281443626538406e-03, 1.2913223910183957e-04, 0., 0.,
             1.2913223910183957e-04, 1.6785212373998382e-03, 0., 0., 0.,
             0., 0., 0., 0., 2.4414062500000000e-04,
             1.2913223910183957e-04, 3.9674666246661272e-04, 0., 0.,
             1.2913223910183957e-04, 0., 1.2913223910183957e-04,
             1.2035178299297344e-02, 1.0692762846110965e-03,
             1.9350718086381968e-04, 6.2500001862645163e-04, 0., 0., 0.,
             4.1091388316774830e-05, 0., 0., 5.3230642542232637e-03,
             5.4131962677342370e-04, 0., 0., 0., 1.5241579254704485e-04,
             6.2500001862645163e-04, 1.5241579254704485e-04,
             4.7370905006993702e-04, 0., 2.2956842506993702e-04, 0.,
             9.4962575984275863e-03, 0., 0., 1.3674794095843610e-03,
             8.2182776633549660e-05, 0., 0., 1.5241579254704485e-04, 0.,
             0., 0., 7.3084488723092070e-03, 0., 1.8133903039760691e-02,
             0., 2.8523201331677483e-04, 1.7303375474436655e-03,
             4.1091388316774830e-05, 2.4324901985930091e-03,
             2.2956842506993702e-04, 4.1091388316774830e-05, 0., 0., 0.,
             2.4414062500000000e-04, 0., 1.3739870882327601e-02, 0.,
             2.4414062500000000e-04, 1.7449097473737284e-03, 0., 0.,
             2.8523201331677483e-04, 0., 0., 4.1091388316774830e-05, 0.,
             0., 0., 2.2956842506993702e-04, 0., 1.9329132921072532e-03,
             4.1091388316774830e-05, 8.2182776633549660e-05,
             1.5617512389563899e-03, 0., 3.1868158772168781e-03,
             4.9378488613029494e-04, 0., 0., 0., 4.1091388316774830e-05,
             6.2500001862645163e-04, 0., 2.8523201331677483e-04, 0.,
             4.5269349781352011e-04, 2.0803017128070461e-03, 0., 0., 0.,
             3.0483158509408970e-04, 4.8828125000000000e-04, 0., 0.,
             4.1091388316774830e-05, 0., 0., 0., 0.,
             2.4414062500000000e-04, 0., 0., 0., 8.5456844369638865e-04,
             0., 4.1091388316774830e-05, 4.1091388316774830e-05,
             1.5755272898061536e-02, 1.2913223910183957e-04, 0., 0., 0.,
             1.2913223910183957e-04, 0., 0., 0., 0.,
             1.2913223910183957e-04, 1.2913223910183957e-04,
             1.2913223910183957e-04, 1.2913223910183957e-04,
             1.2913223910183957e-04, 0., 0., 0., 0., 0., 0., 0.,
             5.1652895640735830e-04, 1.2913223910183957e-04, 0.,
             2.5826447820367915e-04, 1.2913223910183957e-04, 0., 0.,
             1.2913223910183957e-04, 0., 0., 0., 0., 0.,
             7.7479343461103745e-04, 0., 0., 1.2913223910183957e-04, 0.,
             0., 1.2913223910183957e-04, 0., 0., 1.2913223910183957e-04,
             0., 0., 0., 7.7479343461103745e-04, 0.,
             1.2913223910183957e-04, 0., 1.2913223910183957e-04, 0., 0.,
             1.2913223910183957e-04, 0., 0., 0., 0., 0., 0., 0.,
             5.1652895640735830e-04, 0., 0., 2.5826447820367915e-04, 0.,
             7.7479343461103745e-04, 2.5826447820367915e-04, 0., 0., 0.,
             0., 0., 1.2913223910183957e-04, 2.5826447820367915e-04, 0.,
             0., 1.4204545877873898e-03, 1.2913223910183957e-04, 0., 0.,
             1.2913223910183957e-04, 0., 0., 0., 0., 0., 0., 0., 0., 0.,
             1.2913223910183957e-04, 0., 0., 0., 1.2913223910183957e-04,
             0., 1.2913223910183957e-04, 2.7117770634714766e-03, 0., 0.,
             0., 0., 0., 0., 0., 0., 0., 0., 0., 0., 0., 0., 0., 0., 0.,
             0., 0., 0., 0., 0., 0., 0., 0., 0., 0., 0., 0., 0., 0., 0.,
             0., 0., 0., 0., 0., 0., 0., 0., 0., 0., 0., 0., 0., 0., 0.,
             0., 0., 0., 0., 0., 0., 0., 0., 0., 0., 0., 0., 0., 0., 0.,
             0., 0., 0., 0., 0., 0., 0., 0., 0., 0., 0., 0., 0., 0., 0.,
             0., 0., 0., 0., 0., 0., 0., 0., 0., 0., 0., 0., 0., 0., 0.,
             0., 0., 0., 0., 0., 0., 0., 0., 1.2288952486635986e-03,
             1.3354701650703069e-04, 9.8619334348266224e-04,
             4.2794175630324338e-04, 0., 0., 5.6819582608427983e-04, 0.,
             0., 3.6591691593251584e-03, 4.1091388316774830e-04,
             3.2873110653419864e-04, 2.2956842506993702e-04, 0., 0.,
             1.9837333123330636e-04, 0., 1.3259788498190903e-03, 0.,
             8.5583554430170364e-04, 0., 5.5512210886726702e-03, 0.,
             1.9837333123330636e-04, 2.2577145891315327e-03,
             1.7463840482380552e-04, 0., 1.9837333123330636e-04,
             3.2873110653419864e-04, 0., 2.2956842506993702e-04, 0.,
             5.3961534940287744e-03, 0., 1.3459776990312155e-02, 0.,
             2.8523201331677483e-04, 5.3029367897364341e-04,
             4.6227812304122933e-04, 6.6065145427453569e-04, 0.,
             4.1091388316774830e-05, 0., 0., 1.9837333123330636e-04,
             7.9573310333012990e-04, 1.9837333123330636e-04,
             1.1120310241678692e-02, 0., 4.4251395623330636e-04,
             2.8523201331677483e-04, 0., 0., 1.4630916108786713e-03, 0.,
             6.5746221306839728e-04, 4.1091388316774830e-05, 0.,
             9.2455628190255858e-05, 0., 3.2873110653419864e-04, 0.,
             1.9201777670420407e-03, 3.6982249485097347e-04,
             2.8055610786685602e-04, 8.3210061789220280e-04, 0.,
             2.2565086169949473e-03, 4.1091388316774830e-05, 0., 0., 0.,
